{"learner":{"attributes":{"scikit_learn":"{\"_estimator_type\": \"regressor\"}"},"feature_names":["team_rate","opponent_rate","team_asi","opponent_dwi","importance","venue"],"feature_types":["float","float","float","float","float","float"],"gradient_booster":{"model":{"cats":{"enc":[],"feature_segments":[],"sorted_idx":[]},"gbtree_model_param":{"num_parallel_tree":"1","num_trees":"100"},"iteration_indptr":[0,1,2,3,4,5,6,7,8,9,10,11,12,13,14,15,16,17,18,19,20,21,22,23,24,25,26,27,28,29,30,31,32,33,34,35,36,37,38,39,40,41,42,43,44,45,46,47,48,49,50,51,52,53,54,55,56,57,58,59,60,61,62,63,64,65,66,67,68,69,70,71,72,73,74,75,76,77,78,79,80,81,82,83,84,85,86,87,88,89,90,91,92,93,94,95,96,97,98,99,100],"tree_info":[0,0,0,0,0,0,0,0,0,0,0,0,0,0,0,0,0,0,0,0,0,0,0,0,0,0,0,0,0,0,0,0,0,0,0,0,0,0,0,0,0,0,0,0,0,0,0,0,0,0,0,0,0,0,0,0,0,0,0,0,0,0,0,0,0,0,0,0,0,0,0,0,0,0,0,0,0,0,0,0,0,0,0,0,0,0,0,0,0,0,0,0,0,0,0,0,0,0,0,0],"trees":[{"base_weights":[-2.0592184E-8,-4.6501163E-2,4.953742E-1,7.26619E-2,-1.06959015E-1,2.954755E-1,7E-1,-6.402746E-2,2.164065E-1,-1.9383584E-1,-1.3747465E-2,5.732761E-2,4.0052232E-1,4.7222662E-1,7E-1,-1.9346544E-1,-9.8484745E-3,4.9906187E-2,3.1011024E-1,-2.72623E-1,-1.4635281E-1,-6.908066E-2,8.203921E-2,-3.0877275E-2,2.3840643E-1,2.0551033E-1,5.456987E-1,2.2858289E-1,5.921687E-1,3.9176437E-1,7E-1,-2.7206737E-1,-1.558117E-1,-1.3928263E-1,5.6011707E-2,6.14978E-3,2.3310433E-1,2.7382106E-1,6.023905E-1,-3.3387905E-1,-2.3083302E-1,-2.2437946E-1,-9.716461E-2,-1.0482732E-1,4.031187E-2,2.0826906E-1,1.3416205E-2,-2.0637462E-1,6.9835233E-3,1.6950005E-1,4.7051352E-1,1.0949505E-1,3.8615575E-1,3.585755E-1,7E-1,2.5506139E-2,3.056632E-1,4.787663E-1,7E-1,2.624529E-1,7E-1,7E-1,9.099679E-2,-3.195396E-2,-2.343671E-2,-2.34703E-2,-1.0912178E-2,4.1750938E-2,-1.453338E-2,5.705604E-2,4.6849404E-3,3.134344E-2,-6.8780227E-4,5.2726414E-2,1.7945921E-2,2.4408977E-2,4.894486E-2,4.729262E-2,7E-2,-3.9961644E-2,-3.127781E-2,-1.809789E-2,-2.878354E-2,-1.9636909E-2,-2.888824E-2,-2.8313396E-3,-1.6374132E-2,-4.8701875E-3,-1.7949728E-2,1.2879372E-2,-2.1504725E-3,1.3983934E-2,3.5665985E-2,-3.6649897E-3,1.3837861E-2,-1.3505794E-2,-2.8587123E-2,-1.5621836E-2,6.2415483E-3,3.0521065E-2,5.4262313E-3,3.9992943E-2,7E-2,-1.1944371E-2,1.578822E-2,2.518471E-2,5.483944E-2,2.5509551E-2,5.581627E-2,2.4404643E-2,7E-2,7.118174E-3,-2.6363913E-2,5.0316345E-2,2.0592382E-2,5.0144535E-2,6.151522E-3,7E-2,4.233968E-2,-1.6313966E-2,3.3610623E-2,7E-2,-1.2111288E-2,6.1903726E-2,7E-2,-1.7806001E-2,5.376153E-2],"categories":[],"categories_nodes":[],"categories_segments":[],"categories_sizes":[],"default_left":[0,0,0,0,0,0,0,0,0,0,0,0,0,0,0,0,0,0,0,0,0,0,0,0,0,0,0,0,0,0,0,0,0,0,0,0,0,0,0,0,0,0,0,0,0,0,0,0,0,0,0,0,0,0,0,0,0,0,0,0,0,0,0,0,0,0,0,0,0,0,0,0,0,0,0,0,0,0,0,0,0,0,0,0,0,0,0,0,0,0,0,0,0,0,0,0,0,0,0,0,0,0,0,0,0,0,0,0,0,0,0,0,0,0,0,0,0,0,0,0,0,0,0,0,0,0,0],"id":0,"left_children":[1,3,5,7,9,11,13,15,17,19,21,23,25,27,29,31,33,35,37,39,41,43,45,47,49,51,53,55,57,59,61,63,65,67,69,71,73,75,77,79,81,83,85,87,89,91,93,95,97,99,101,103,105,107,109,111,113,115,117,119,121,123,125,-1,-1,-1,-1,-1,-1,-1,-1,-1,-1,-1,-1,-1,-1,-1,-1,-1,-1,-1,-1,-1,-1,-1,-1,-1,-1,-1,-1,-1,-1,-1,-1,-1,-1,-1,-1,-1,-1,-1,-1,-1,-1,-1,-1,-1,-1,-1,-1,-1,-1,-1,-1,-1,-1,-1,-1,-1,-1,-1,-1,-1,-1,-1,-1],"loss_changes":[5.2669575E3,1.5058904E3,1.0058286E3,1.3823779E3,1.122937E3,2.7941913E2,2.2252295E2,2.5290396E2,5.3501074E2,2.6846948E2,3.5457297E2,5.4635017E1,2.1932776E2,1.2548218E2,2.619336E1,3.1451355E1,2.1673087E2,9.9002106E1,2.3257837E2,6.9011475E1,1.7186627E2,1.658179E2,2.1218094E2,1.5288977E1,1.7839802E1,5.7357834E1,1.9423999E2,2.2214539E1,4.7442505E1,1.2802895E1,1.1186035E1,6.090988E0,2.6483429E1,2.8948425E1,7.9413826E1,3.9916313E1,3.7480423E1,1.2503064E2,4.3199768E1,1.5054321E1,4.555011E1,3.1228882E1,1.259194E2,1.3393097E2,5.712921E1,8.754761E1,9.9291046E1,2.276289E0,1.7139292E1,1.3518974E1,8.077763E0,2.3971594E1,2.4879639E1,5.309912E1,4.119287E1,5.191735E0,2.0165771E1,1.5710693E1,1.7182129E1,6.600333E0,5.788723E0,5.878906E-1,3.878444E0,0E0,0E0,0E0,0E0,0E0,0E0,0E0,0E0,0E0,0E0,0E0,0E0,0E0,0E0,0E0,0E0,0E0,0E0,0E0,0E0,0E0,0E0,0E0,0E0,0E0,0E0,0E0,0E0,0E0,0E0,0E0,0E0,0E0,0E0,0E0,0E0,0E0,0E0,0E0,0E0,0E0,0E0,0E0,0E0,0E0,0E0,0E0,0E0,0E0,0E0,0E0,0E0,0E0,0E0,0E0,0E0,0E0,0E0,0E0,0E0,0E0,0E0,0E0,0E0],"parents":[2147483647,0,0,1,1,2,2,3,3,4,4,5,5,6,6,7,7,8,8,9,9,10,10,11,11,12,12,13,13,14,14,15,15,16,16,17,17,18,18,19,19,20,20,21,21,22,22,23,23,24,24,25,25,26,26,27,27,28,28,29,29,30,30,31,31,32,32,33,33,34,34,35,35,36,36,37,37,38,38,39,39,40,40,41,41,42,42,43,43,44,44,45,45,46,46,47,47,48,48,49,49,50,50,51,51,52,52,53,53,54,54,55,55,56,56,57,57,58,58,59,59,60,60,61,61,62,62],"right_children":[2,4,6,8,10,12,14,16,18,20,22,24,26,28,30,32,34,36,38,40,42,44,46,48,50,52,54,56,58,60,62,64,66,68,70,72,74,76,78,80,82,84,86,88,90,92,94,96,98,100,102,104,106,108,110,112,114,116,118,120,122,124,126,-1,-1,-1,-1,-1,-1,-1,-1,-1,-1,-1,-1,-1,-1,-1,-1,-1,-1,-1,-1,-1,-1,-1,-1,-1,-1,-1,-1,-1,-1,-1,-1,-1,-1,-1,-1,-1,-1,-1,-1,-1,-1,-1,-1,-1,-1,-1,-1,-1,-1,-1,-1,-1,-1,-1,-1,-1,-1,-1,-1,-1,-1,-1,-1],"split_conditions":[2.18578E0,2.3483971E-2,1.2893708E0,-3.8885802E-4,2.5704187E-1,5E-1,2.6912796E0,-3.369585E-1,5E-1,-8.4828414E-2,1E0,-4.9011135E-3,-2.7009657E-1,5E-1,-3.369585E-1,5.9918624E-1,5E-1,4.6941343E-1,5.580855E-1,5E-1,5E-1,6.6759944E-1,2.9686433E-1,-6.514008E-1,3.070872E0,3.1896079E0,2.856036E0,-1.3059248E-2,6E-1,3.7629602E0,2.7668893E-2,-6.24684E-1,5E-1,5.567069E-1,3.0163276E-1,-4.5964846E-1,-3.369585E-1,1.965945E0,1.5212646E0,-4.0265283E-1,2.5704187E-1,4.3746775E-1,2.7423784E-1,4.3746775E-1,4.9197018E-1,5.580855E-1,6.7806005E-1,-6.514008E-1,2.36647E0,-4.4413105E-1,-1.7640595E-1,5.263944E-1,-4.75095E-1,7.811974E-2,4.7009915E-1,-1.258276E-1,-4.1635254E-1,-8.9998515E-3,-1.13245204E-1,1.3284732E0,-3.5684633E-1,-2.4339008E-1,1.7267449E-1,-3.195396E-2,-2.343671E-2,-2.34703E-2,-1.0912178E-2,4.1750938E-2,-1.453338E-2,5.705604E-2,4.6849404E-3,3.134344E-2,-6.8780227E-4,5.2726414E-2,1.7945921E-2,2.4408977E-2,4.894486E-2,4.729262E-2,7E-2,-3.9961644E-2,-3.127781E-2,-1.809789E-2,-2.878354E-2,-1.9636909E-2,-2.888824E-2,-2.8313396E-3,-1.6374132E-2,-4.8701875E-3,-1.7949728E-2,1.2879372E-2,-2.1504725E-3,1.3983934E-2,3.5665985E-2,-3.6649897E-3,1.3837861E-2,-1.3505794E-2,-2.8587123E-2,-1.5621836E-2,6.2415483E-3,3.0521065E-2,5.4262313E-3,3.9992943E-2,7E-2,-1.1944371E-2,1.578822E-2,2.518471E-2,5.483944E-2,2.5509551E-2,5.581627E-2,2.4404643E-2,7E-2,7.118174E-3,-2.6363913E-2,5.0316345E-2,2.0592382E-2,5.0144535E-2,6.151522E-3,7E-2,4.233968E-2,-1.6313966E-2,3.3610623E-2,7E-2,-1.2111288E-2,6.1903726E-2,7E-2,-1.7806001E-2,5.376153E-2],"split_indices":[3,1,2,0,0,5,3,0,5,0,5,0,0,5,0,2,5,0,0,5,5,0,1,0,3,3,3,0,4,3,1,0,5,3,3,1,1,2,3,0,1,1,1,1,1,0,0,1,3,1,1,2,0,0,2,1,1,1,1,2,0,0,0,0,0,0,0,0,0,0,0,0,0,0,0,0,0,0,0,0,0,0,0,0,0,0,0,0,0,0,0,0,0,0,0,0,0,0,0,0,0,0,0,0,0,0,0,0,0,0,0,0,0,0,0,0,0,0,0,0,0,0,0,0,0,0,0],"split_type":[0,0,0,0,0,0,0,0,0,0,0,0,0,0,0,0,0,0,0,0,0,0,0,0,0,0,0,0,0,0,0,0,0,0,0,0,0,0,0,0,0,0,0,0,0,0,0,0,0,0,0,0,0,0,0,0,0,0,0,0,0,0,0,0,0,0,0,0,0,0,0,0,0,0,0,0,0,0,0,0,0,0,0,0,0,0,0,0,0,0,0,0,0,0,0,0,0,0,0,0,0,0,0,0,0,0,0,0,0,0,0,0,0,0,0,0,0,0,0,0,0,0,0,0,0,0,0],"sum_hessian":[2.2864352E5,2.0902327E5,1.9620262E4,7.0354195E4,1.3866906E5,1.1169224E4,8.451038E3,3.606238E4,3.4291816E4,7.177286E4,6.6896195E4,3.4192068E3,7.750017E3,4.2975605E3,4.153477E3,1.0639995E4,2.5422385E4,1.2349599E4,2.1942219E4,2.6987904E4,4.4784957E4,4.2402043E4,2.4494156E4,2.2997905E3,1.1194161E3,3.3083735E3,4.4416436E3,1.418666E3,2.8788945E3,2.7985403E2,3.8736233E3,3.4441443E3,7.195851E3,8.572954E3,1.684943E4,9.969454E3,2.3801448E3,1.9520512E4,2.4217073E3,1.0942016E4,1.6045889E4,1.731493E4,2.747003E4,3.1958777E4,1.0443266E4,8.625601E3,1.5868556E4,4.0731232E2,1.8924783E3,8.6449963E2,2.5491655E2,2.161249E3,1.1471245E3,2.5768738E3,1.86477E3,3.9068732E2,1.0279786E3,1.6624993E3,1.2163953E3,2.0781241E2,7.204163E1,3.843144E3,3.0479153E1,1.5211868E3,1.9229574E3,2.673853E3,4.521998E3,9.1437454E1,8.481517E3,2.937082E2,1.655572E4,4.0454147E2,9.564912E3,3.6574982E2,2.0143949E3,1.7156992E4,2.3635198E3,1.2939785E3,1.1277286E3,2.654457E3,8.287559E3,8.561871E3,7.4840176E3,1.2075286E4,5.2396436E3,1.3505035E4,1.3964993E4,1.824593E4,1.3712848E4,4.2947896E3,6.1484766E3,5.904643E3,2.720957E3,1.1329933E4,4.538623E3,2.1612491E2,1.9118741E2,4.7935394E2,1.4131244E3,3.9622897E2,4.6827063E2,2.4383322E2,1.1083328E1,3.7683316E2,1.7844159E3,6.289789E2,5.1814557E2,1.69852E3,8.7835376E2,1.9949991E2,1.66527E3,3.380415E2,5.264581E1,3.435832E2,6.843955E2,1.5766034E3,8.58958E1,9.864162E2,2.2997906E2,3.0479153E1,1.7733325E2,6.3729137E1,8.312496E0,1.634791E2,3.679665E3,1.9395824E1,1.1083328E1],"tree_param":{"num_deleted":"0","num_feature":"6","num_nodes":"127","size_leaf_vector":"1"}},{"base_weights":[3.18092E-4,-4.4472452E-2,4.5690864E-1,6.846514E-2,-1.028118E-1,2.880532E-1,7E-1,-5.7558734E-2,2.0529377E-1,-2.1525441E-1,-3.425793E-2,6.318023E-2,3.836814E-1,4.4588572E-1,7E-1,-1.8755597E-1,-6.277142E-3,4.855006E-2,2.9161394E-1,-2.8494525E-1,-1.697311E-1,-8.565203E-2,5.4030485E-2,-5.27331E-2,1.9188868E-1,2.078495E-1,5.209152E-1,3.267496E-1,6.4541036E-1,4.4329175E-1,7E-1,-2.6588094E-1,-1.5046851E-1,-1.2910852E-1,5.4918703E-2,6.110798E-3,2.1625626E-1,2.3893146E-1,4.5099902E-1,-3.4058148E-1,-2.4728887E-1,-2.702251E-1,-1.3649179E-1,-1.2112844E-1,1.9791739E-2,1.569249E-1,-9.017189E-3,-1.3171571E-1,4.120907E-2,1.22318886E-1,3.7114054E-1,7.6519735E-2,3.1580463E-1,3.518284E-1,7E-1,2.2981757E-1,4.331079E-1,4.8957366E-1,7E-1,9.942196E-2,5.6080806E-1,7E-1,1.4063299E-1,-3.1379487E-2,-2.2815233E-2,6.0949456E-2,-1.5527645E-2,4.8954558E-2,-1.385386E-2,1.716588E-3,1.6104987E-2,3.5116874E-2,-4.8078713E-4,4.342723E-2,1.5635636E-2,2.1192743E-2,4.7207016E-2,7E-2,3.9139215E-2,-3.9566454E-2,-3.1601403E-2,-2.1275982E-2,-2.8590724E-2,-1.994244E-2,-3.1357586E-2,-8.784027E-3,-2.0520402E-2,-4.103867E-3,-1.7033018E-2,6.015893E-3,-9.929148E-3,1.0423939E-2,3.2677494E-2,-5.844099E-3,1.1289435E-2,-2.5670862E-2,-1.0514342E-2,-1.4640579E-2,1.10455705E-2,2.7940735E-2,3.3157237E-4,3.3690576E-2,7E-2,-1.4776218E-2,1.30718695E-2,1.9965103E-2,4.3194205E-2,2.5492463E-2,5.137032E-2,2.3215426E-2,7E-2,1.5307925E-2,4.055462E-2,1.705563E-2,4.9828533E-2,7E-2,4.3480348E-2,7E-2,4.3776553E-2,-1.2499308E-2,2.8525863E-2,3.7418637E-2,7E-2,6.379868E-2,7E-2,-1.2174454E-2,4.877472E-2],"categories":[],"categories_nodes":[],"categories_segments":[],"categories_sizes":[],"default_left":[0,0,0,0,0,0,0,0,0,0,0,0,0,0,0,0,0,0,0,0,0,0,0,0,0,0,0,0,0,0,0,0,0,0,0,0,0,0,0,0,0,0,0,0,0,0,0,0,0,0,0,0,0,0,0,0,0,0,0,0,0,0,0,0,0,0,0,0,0,0,0,0,0,0,0,0,0,0,0,0,0,0,0,0,0,0,0,0,0,0,0,0,0,0,0,0,0,0,0,0,0,0,0,0,0,0,0,0,0,0,0,0,0,0,0,0,0,0,0,0,0,0,0,0,0,0,0],"id":1,"left_children":[1,3,5,7,9,11,13,15,17,19,21,23,25,27,29,31,33,35,37,39,41,43,45,47,49,51,53,55,57,59,61,63,65,67,69,71,73,75,77,79,81,83,85,87,89,91,93,95,97,99,101,103,105,107,109,111,113,115,117,119,121,123,125,-1,-1,-1,-1,-1,-1,-1,-1,-1,-1,-1,-1,-1,-1,-1,-1,-1,-1,-1,-1,-1,-1,-1,-1,-1,-1,-1,-1,-1,-1,-1,-1,-1,-1,-1,-1,-1,-1,-1,-1,-1,-1,-1,-1,-1,-1,-1,-1,-1,-1,-1,-1,-1,-1,-1,-1,-1,-1,-1,-1,-1,-1,-1,-1],"loss_changes":[4.673021E3,1.3710264E3,9.044463E2,1.2222045E3,1.0576558E3,2.6750415E2,2.5627246E2,2.4596732E2,4.5977197E2,1.6482642E2,3.867884E2,5.540676E1,2.105138E2,9.4306946E1,2.4155518E1,3.0279633E1,1.9889995E2,8.590108E1,1.8389856E2,4.293274E1,1.04975525E2,2.0154956E2,2.034674E2,1.4507217E1,2.189878E1,5.4246536E1,1.9300977E2,2.5588623E1,2.7568542E1,1.5056946E1,8.591797E0,5.989273E0,2.5985016E1,5.14019E1,7.0763245E1,3.629491E1,3.1762741E1,1.0360309E2,9.4656494E1,1.1086487E1,1.6271973E1,2.391687E1,7.8961914E1,1.5885602E2,6.5212204E1,1.06601654E2,1.171906E2,3.5003242E0,1.1623706E1,2.3725023E1,7.0133896E0,2.1028244E1,2.8250244E1,4.5250122E1,4.260974E1,1.7546036E1,2.0226562E1,9.196579E0,7.3479614E0,4.0588756E0,1.0266472E1,3.39917E0,2.7030203E0,0E0,0E0,0E0,0E0,0E0,0E0,0E0,0E0,0E0,0E0,0E0,0E0,0E0,0E0,0E0,0E0,0E0,0E0,0E0,0E0,0E0,0E0,0E0,0E0,0E0,0E0,0E0,0E0,0E0,0E0,0E0,0E0,0E0,0E0,0E0,0E0,0E0,0E0,0E0,0E0,0E0,0E0,0E0,0E0,0E0,0E0,0E0,0E0,0E0,0E0,0E0,0E0,0E0,0E0,0E0,0E0,0E0,0E0,0E0,0E0,0E0,0E0,0E0,0E0],"parents":[2147483647,0,0,1,1,2,2,3,3,4,4,5,5,6,6,7,7,8,8,9,9,10,10,11,11,12,12,13,13,14,14,15,15,16,16,17,17,18,18,19,19,20,20,21,21,22,22,23,23,24,24,25,25,26,26,27,27,28,28,29,29,30,30,31,31,32,32,33,33,34,34,35,35,36,36,37,37,38,38,39,39,40,40,41,41,42,42,43,43,44,44,45,45,46,46,47,47,48,48,49,49,50,50,51,51,52,52,53,53,54,54,55,55,56,56,57,57,58,58,59,59,60,60,61,61,62,62],"right_children":[2,4,6,8,10,12,14,16,18,20,22,24,26,28,30,32,34,36,38,40,42,44,46,48,50,52,54,56,58,60,62,64,66,68,70,72,74,76,78,80,82,84,86,88,90,92,94,96,98,100,102,104,106,108,110,112,114,116,118,120,122,124,126,-1,-1,-1,-1,-1,-1,-1,-1,-1,-1,-1,-1,-1,-1,-1,-1,-1,-1,-1,-1,-1,-1,-1,-1,-1,-1,-1,-1,-1,-1,-1,-1,-1,-1,-1,-1,-1,-1,-1,-1,-1,-1,-1,-1,-1,-1,-1,-1,-1,-1,-1,-1,-1,-1,-1,-1,-1,-1,-1,-1,-1,-1,-1,-1],"split_conditions":[2.18578E0,2.3483971E-2,1.3585235E0,1.0545366E-2,1.2871492E-1,5E-1,2.6912796E0,-3.369585E-1,5E-1,5E-1,1E0,-1.09177105E-1,-2.4339008E-1,1E0,-2.3154742E-1,5.9918624E-1,5E-1,4.6941343E-1,4.0827644E-1,-1.4196491E-1,-2.25698E-1,6.024133E-1,2.9686433E-1,8.564539E-1,2.96215E0,2.7685115E0,2.856036E0,5E-1,6E-1,5E-1,2.7668893E-2,-6.24684E-1,4.4171467E-1,5.567069E-1,1.3179368E0,-5.174423E-1,-2.7799404E-1,2.0307922E0,-2.9329157E-1,-4.0265283E-1,6E-1,1.9153537E-1,2.9686433E-1,2.8783503E-1,7.487758E-1,5.580855E-1,6.2858176E-1,-7.633648E-1,2.36647E0,-4.4413105E-1,-1.5881558E-1,5.60407E-1,-4.75095E-1,8.8888764E-2,4.7009915E-1,4.230797E-1,1.4804977E0,-5.796939E-1,-1.2954202E-1,3.070872E0,3.3508701E0,5E-1,1.7267449E-1,-3.1379487E-2,-2.2815233E-2,6.0949456E-2,-1.5527645E-2,4.8954558E-2,-1.385386E-2,1.716588E-3,1.6104987E-2,3.5116874E-2,-4.8078713E-4,4.342723E-2,1.5635636E-2,2.1192743E-2,4.7207016E-2,7E-2,3.9139215E-2,-3.9566454E-2,-3.1601403E-2,-2.1275982E-2,-2.8590724E-2,-1.994244E-2,-3.1357586E-2,-8.784027E-3,-2.0520402E-2,-4.103867E-3,-1.7033018E-2,6.015893E-3,-9.929148E-3,1.0423939E-2,3.2677494E-2,-5.844099E-3,1.1289435E-2,-2.5670862E-2,-1.0514342E-2,-1.4640579E-2,1.10455705E-2,2.7940735E-2,3.3157237E-4,3.3690576E-2,7E-2,-1.4776218E-2,1.30718695E-2,1.9965103E-2,4.3194205E-2,2.5492463E-2,5.137032E-2,2.3215426E-2,7E-2,1.5307925E-2,4.055462E-2,1.705563E-2,4.9828533E-2,7E-2,4.3480348E-2,7E-2,4.3776553E-2,-1.2499308E-2,2.8525863E-2,3.7418637E-2,7E-2,6.379868E-2,7E-2,-1.2174454E-2,4.877472E-2],"split_indices":[3,1,2,0,0,5,3,0,5,5,5,0,0,5,0,2,5,0,0,0,0,0,1,2,3,3,3,5,4,5,1,0,3,3,2,1,1,2,1,0,4,1,1,1,1,0,0,0,3,1,1,2,0,0,2,0,2,1,1,3,3,5,0,0,0,0,0,0,0,0,0,0,0,0,0,0,0,0,0,0,0,0,0,0,0,0,0,0,0,0,0,0,0,0,0,0,0,0,0,0,0,0,0,0,0,0,0,0,0,0,0,0,0,0,0,0,0,0,0,0,0,0,0,0,0,0,0],"split_type":[0,0,0,0,0,0,0,0,0,0,0,0,0,0,0,0,0,0,0,0,0,0,0,0,0,0,0,0,0,0,0,0,0,0,0,0,0,0,0,0,0,0,0,0,0,0,0,0,0,0,0,0,0,0,0,0,0,0,0,0,0,0,0,0,0,0,0,0,0,0,0,0,0,0,0,0,0,0,0,0,0,0,0,0,0,0,0,0,0,0,0,0,0,0,0,0,0,0,0,0,0,0,0,0,0,0,0,0,0,0,0,0,0,0,0,0,0,0,0,0,0,0,0,0,0,0,0],"sum_hessian":[2.2849712E5,2.0808531E5,2.0411816E4,7.0876734E4,1.3720858E5,1.2439757E4,7.9720596E3,3.689539E4,3.3981344E4,5.196804E4,8.524054E4,3.7121558E3,8.727601E3,3.9752458E3,3.9968137E3,1.0436509E4,2.6458883E4,1.2068474E4,2.1912871E4,2.0531486E4,3.1436553E4,5.387757E4,3.1362969E4,1.9534718E3,1.758684E3,3.8268867E3,4.900714E3,2.4906917E3,1.4845543E3,3.7298145E2,3.6238323E3,3.3517605E3,7.0847485E3,8.798187E3,1.7660697E4,9.63205E3,2.436423E3,1.6471088E4,5.4417837E3,8.28403E3,1.2247455E4,7.8117554E3,2.3624797E4,4.0313875E4,1.3563694E4,1.1915411E4,1.9447557E4,1.0610139E3,8.924578E2,1.2681731E3,4.9051077E2,1.7272986E3,2.0995881E3,2.8920422E3,2.0086719E3,1.3047445E3,1.185947E3,7.3265106E2,7.5190326E2,9.5469604E1,2.7751184E2,3.5958052E3,2.8027077E1,1.4733472E3,1.8784135E3,4.3749557E1,7.040999E3,1.3133191E2,8.6668545E3,1.3027674E4,4.633023E3,2.944826E2,9.337567E3,5.2378125E2,1.912642E3,1.4763021E4,1.7080665E3,9.004425E2,4.5413413E3,2.5504722E3,5.7335586E3,6.4695127E3,5.7779424E3,2.9687603E3,4.842995E3,1.3832798E4,9.791999E3,1.5342099E4,2.4971777E4,1.0130218E4,3.4334773E3,9.095657E3,2.819754E3,1.3838039E4,5.609518E3,1.8449774E2,8.7651624E2,2.4029506E2,6.521628E2,5.4603687E2,7.221363E2,4.5910883E2,3.1401949E1,3.3583716E2,1.3914614E3,1.0510804E3,1.0485077E3,1.8106814E3,1.0813607E3,1.9591064E2,1.8127612E3,9.0946466E2,3.952799E2,2.3657562E2,9.493714E2,1.3401254E2,5.986385E2,6.389241E2,1.1297922E2,4.3394325E1,5.2075283E1,1.5115997E2,1.2635188E2,1.01039154E3,2.5854136E3,1.6331585E1,1.1695492E1],"tree_param":{"num_deleted":"0","num_feature":"6","num_nodes":"127","size_leaf_vector":"1"}},{"base_weights":[5.5381766E-4,-4.550965E-2,3.9470533E-1,-1.5215506E-1,9.27312E-3,2.951179E-1,7E-1,-6.7388035E-2,-2.4601832E-1,1.5265653E-1,-6.266025E-2,1.505288E-1,4.5420963E-1,3.2850257E-1,7E-1,-1.7373489E-1,-1.2154547E-2,-3.0905187E-1,-2.043752E-1,1.8027887E-2,2.2439365E-1,-1.004878E-1,6.137033E-2,-4.084839E-2,2.2923584E-1,2.2661056E-1,5.747607E-1,2.1652277E-1,4.4906622E-1,2.562099E-1,7E-1,-2.8295493E-1,-1.4354311E-1,-1.3981105E-1,4.2810757E-2,-3.934197E-1,-2.909442E-1,-1.5156992E-1,-2.6146114E-1,-1.992456E-2,1.686858E-1,1.763643E-1,3.6004362E-1,-1.4492308E-1,-2.1067144E-2,1.5649141E-1,-3.5762687E-3,-1.2523034E-1,4.4549342E-2,3.8338143E-2,2.9928616E-1,2.581524E-1,-6.8485074E-2,4.6489608E-1,7E-1,-5.601274E-2,2.792361E-1,3.955474E-1,7E-1,-2.5801586E-3,6.452815E-1,7E-1,-1.04792835E-2,-3.7186187E-2,-2.6603594E-2,1.7658643E-3,-1.5894348E-2,-2.3040121E-2,-9.815896E-3,6.119942E-4,1.4373528E-2,-3.758338E-2,-4.5209732E-2,-2.545294E-2,-3.225006E-2,-3.1614807E-2,-1.3266064E-2,-3.3768643E-2,-2.3114556E-2,9.226816E-3,-4.6426067E-3,3.8544096E-2,1.2845828E-2,2.187041E-2,6.605271E-3,6.0771216E-2,3.0963495E-2,-1.0862808E-2,-2.0734834E-2,2.9529075E-3,-1.0448774E-2,2.425948E-3,2.2159325E-2,-4.805741E-3,9.854973E-3,-6.9679217E-3,-1.8848496E-2,-6.556147E-3,1.252275E-2,-1.5297492E-2,8.101077E-3,1.5945056E-2,3.5962168E-2,1.8670555E-2,4.045535E-2,6.368748E-2,-9.045291E-3,4.9773514E-2,1.42454645E-2,-2.3927243E-2,7E-2,1.373894E-2,-2.6405279E-2,2.2192212E-2,5.1724028E-2,3.3463813E-2,6.1782885E-2,7E-2,8.935916E-4,-2.0427443E-2,9.615195E-3,3.2010503E-2,7E-2,6.375802E-2,7E-2,1.801806E-2,-6.4895325E-3],"categories":[],"categories_nodes":[],"categories_segments":[],"categories_sizes":[],"default_left":[0,0,0,0,0,0,0,0,0,0,0,0,0,0,0,0,0,0,0,0,0,0,0,0,0,0,0,0,0,0,0,0,0,0,0,0,0,0,0,0,0,0,0,0,0,0,0,0,0,0,0,0,0,0,0,0,0,0,0,0,0,0,0,0,0,0,0,0,0,0,0,0,0,0,0,0,0,0,0,0,0,0,0,0,0,0,0,0,0,0,0,0,0,0,0,0,0,0,0,0,0,0,0,0,0,0,0,0,0,0,0,0,0,0,0,0,0,0,0,0,0,0,0,0,0,0,0],"id":2,"left_children":[1,3,5,7,9,11,13,15,17,19,21,23,25,27,29,31,33,35,37,39,41,43,45,47,49,51,53,55,57,59,61,63,65,67,69,71,73,75,77,79,81,83,85,87,89,91,93,95,97,99,101,103,105,107,109,111,113,115,117,119,121,123,125,-1,-1,-1,-1,-1,-1,-1,-1,-1,-1,-1,-1,-1,-1,-1,-1,-1,-1,-1,-1,-1,-1,-1,-1,-1,-1,-1,-1,-1,-1,-1,-1,-1,-1,-1,-1,-1,-1,-1,-1,-1,-1,-1,-1,-1,-1,-1,-1,-1,-1,-1,-1,-1,-1,-1,-1,-1,-1,-1,-1,-1,-1,-1,-1],"loss_changes":[4.146659E3,1.1947131E3,8.7722E2,5.5214294E2,1.3933976E3,4.356549E2,2.190476E2,2.1420111E2,8.637842E1,4.3588867E2,4.2209525E2,1.4950435E2,2.4730566E2,2.1378769E1,3.4697998E1,4.1065063E1,1.6842308E2,1.9897217E1,5.9746826E1,8.971861E1,1.9176941E2,2.4328741E2,1.2989395E2,2.0853401E1,9.403317E1,2.909845E1,1.2564758E2,1.414455E1,1.08164215E1,1.7990852E1,7.2941895E0,3.9602814E0,2.425235E1,2.7237137E1,6.2131615E1,2.2156067E0,1.2314758E1,3.2028793E1,2.194165E1,3.7271507E1,2.7481102E1,1.0155536E2,9.592102E1,1.0013574E2,1.043998E2,7.3435394E1,5.676874E1,5.1011944E0,1.2788399E1,1.5434271E1,4.334857E1,2.9450974E1,4.7447796E0,4.1805725E1,1.8355957E1,6.2917433E0,9.054497E0,8.481461E0,7.536804E0,2.1761272E0,7.86631E0,2.6826172E0,1.716924E-1,0E0,0E0,0E0,0E0,0E0,0E0,0E0,0E0,0E0,0E0,0E0,0E0,0E0,0E0,0E0,0E0,0E0,0E0,0E0,0E0,0E0,0E0,0E0,0E0,0E0,0E0,0E0,0E0,0E0,0E0,0E0,0E0,0E0,0E0,0E0,0E0,0E0,0E0,0E0,0E0,0E0,0E0,0E0,0E0,0E0,0E0,0E0,0E0,0E0,0E0,0E0,0E0,0E0,0E0,0E0,0E0,0E0,0E0,0E0,0E0,0E0,0E0,0E0,0E0],"parents":[2147483647,0,0,1,1,2,2,3,3,4,4,5,5,6,6,7,7,8,8,9,9,10,10,11,11,12,12,13,13,14,14,15,15,16,16,17,17,18,18,19,19,20,20,21,21,22,22,23,23,24,24,25,25,26,26,27,27,28,28,29,29,30,30,31,31,32,32,33,33,34,34,35,35,36,36,37,37,38,38,39,39,40,40,41,41,42,42,43,43,44,44,45,45,46,46,47,47,48,48,49,49,50,50,51,51,52,52,53,53,54,54,55,55,56,56,57,57,58,58,59,59,60,60,61,61,62,62],"right_children":[2,4,6,8,10,12,14,16,18,20,22,24,26,28,30,32,34,36,38,40,42,44,46,48,50,52,54,56,58,60,62,64,66,68,70,72,74,76,78,80,82,84,86,88,90,92,94,96,98,100,102,104,106,108,110,112,114,116,118,120,122,124,126,-1,-1,-1,-1,-1,-1,-1,-1,-1,-1,-1,-1,-1,-1,-1,-1,-1,-1,-1,-1,-1,-1,-1,-1,-1,-1,-1,-1,-1,-1,-1,-1,-1,-1,-1,-1,-1,-1,-1,-1,-1,-1,-1,-1,-1,-1,-1,-1,-1,-1,-1,-1,-1,-1,-1,-1,-1,-1,-1,-1,-1,-1,-1,-1],"split_conditions":[2.099968E0,-3.8885802E-4,3.3508701E0,4.9078483E-2,1.04013324E-1,-1.3059248E-2,-2.5008726E-1,5E-1,5E-1,5E-1,6.024133E-1,5E-1,5E-1,-4.4413105E-1,5.0933516E-1,-4.2986563E-1,-3.1003538E-1,-4.0265283E-1,2.6568198E-1,4.6941343E-1,3.991677E-1,1E0,4.5849082E-1,9.672417E-1,7.472869E-1,-4.4614606E-2,2.6210368E0,5E-1,1.3233923E0,-5.6607E-2,-8.9998515E-3,4.022536E-1,-3.9013344E-1,6.122505E-1,1.3179368E0,5.5154324E-1,6E-1,-4.4413105E-1,-2.9329157E-1,-2.149505E-1,-2.7799404E-1,6.1124717E-3,-2.4339008E-1,4.6352422E-1,4.4245374E-1,5E-1,9.014623E-1,-4.1635254E-1,2.36647E0,3.4380767E-1,-3.2732254E-1,3.9034417E-1,-3.8885802E-4,8.222317E-2,3.4380767E-1,-6.79667E-1,1.0724026E0,4.6955876E0,-2.7009657E-1,3.7629602E0,-1.5062737E-1,5E-1,-2.25698E-1,-3.7186187E-2,-2.6603594E-2,1.7658643E-3,-1.5894348E-2,-2.3040121E-2,-9.815896E-3,6.119942E-4,1.4373528E-2,-3.758338E-2,-4.5209732E-2,-2.545294E-2,-3.225006E-2,-3.1614807E-2,-1.3266064E-2,-3.3768643E-2,-2.3114556E-2,9.226816E-3,-4.6426067E-3,3.8544096E-2,1.2845828E-2,2.187041E-2,6.605271E-3,6.0771216E-2,3.0963495E-2,-1.0862808E-2,-2.0734834E-2,2.9529075E-3,-1.0448774E-2,2.425948E-3,2.2159325E-2,-4.805741E-3,9.854973E-3,-6.9679217E-3,-1.8848496E-2,-6.556147E-3,1.252275E-2,-1.5297492E-2,8.101077E-3,1.5945056E-2,3.5962168E-2,1.8670555E-2,4.045535E-2,6.368748E-2,-9.045291E-3,4.9773514E-2,1.42454645E-2,-2.3927243E-2,7E-2,1.373894E-2,-2.6405279E-2,2.2192212E-2,5.1724028E-2,3.3463813E-2,6.1782885E-2,7E-2,8.935916E-4,-2.0427443E-2,9.615195E-3,3.2010503E-2,7E-2,6.375802E-2,7E-2,1.801806E-2,-6.4895325E-3],"split_indices":[3,0,3,1,1,0,0,5,5,5,0,5,5,0,2,0,0,0,1,0,0,5,1,2,2,1,3,5,2,0,1,2,1,2,2,1,4,0,0,1,1,1,1,1,1,5,0,1,3,2,0,0,0,1,2,1,2,3,0,3,1,5,0,0,0,0,0,0,0,0,0,0,0,0,0,0,0,0,0,0,0,0,0,0,0,0,0,0,0,0,0,0,0,0,0,0,0,0,0,0,0,0,0,0,0,0,0,0,0,0,0,0,0,0,0,0,0,0,0,0,0,0,0,0,0,0,0],"split_type":[0,0,0,0,0,0,0,0,0,0,0,0,0,0,0,0,0,0,0,0,0,0,0,0,0,0,0,0,0,0,0,0,0,0,0,0,0,0,0,0,0,0,0,0,0,0,0,0,0,0,0,0,0,0,0,0,0,0,0,0,0,0,0,0,0,0,0,0,0,0,0,0,0,0,0,0,0,0,0,0,0,0,0,0,0,0,0,0,0,0,0,0,0,0,0,0,0,0,0,0,0,0,0,0,0,0,0,0,0,0,0,0,0,0,0,0,0,0,0,0,0,0,0,0,0,0,0],"sum_hessian":[2.2838878E5,2.044913E5,2.3897486E4,6.93962E4,1.350951E5,1.8941068E4,4.956418E3,3.6465906E4,3.2930297E4,4.5132406E4,8.996269E4,9.923828E3,9.017239E3,1.5897355E3,3.3666824E3,1.2464515E4,2.400139E4,1.3097979E4,1.983232E4,1.5689419E4,2.9442988E4,6.893783E4,2.102486E4,2.892109E3,7.0317197E3,3.1233218E3,5.893918E3,8.2565814E2,7.640774E2,1.7766292E2,3.1890193E3,2.6975706E3,9.766943E3,7.2234463E3,1.6777945E4,2.3107837E3,1.0787194E4,1.0304327E4,9.527992E3,1.2533064E4,3.1563542E3,2.1745793E4,7.6971953E3,4.420476E4,2.4733064E4,8.530151E3,1.2494707E4,1.4544716E3,1.4376375E3,1.888049E3,5.143671E3,2.8218306E3,3.0149127E2,3.9538313E3,1.9400867E3,1.5447174E2,6.711864E2,6.4071686E2,1.2336053E2,1.0729156E2,7.037136E1,3.1745977E3,1.4421708E1,4.2792175E2,2.269649E3,8.517015E2,8.915242E3,2.2737288E3,4.949718E3,1.2305409E4,4.472535E3,1.7836282E3,5.271555E2,5.0122905E3,5.7749043E3,1.0602916E3,9.244036E3,2.7082488E3,6.8197437E3,2.394327E3,1.0138737E4,4.9274564E2,2.6636086E3,1.5713613E4,6.0321807E3,1.299824E3,6.397371E3,2.7954393E4,1.6250369E4,1.5395836E4,9.337229E3,2.8146113E3,5.71554E3,8.704137E3,3.7905708E3,7.755094E2,6.7896216E2,6.080071E2,8.296303E2,3.438574E2,1.5441915E3,1.5515013E3,3.5921692E3,1.8978936E3,9.2393695E2,8.260657E0,2.9323062E2,3.58788E3,3.659514E2,2.0361488E1,1.9197252E3,8.022814E1,7.424361E1,5.4248303E2,1.2870335E2,5.048767E2,1.3584013E2,1.0755295E2,1.5807573E1,3.490898E1,7.2382576E1,5.8381855E1,1.1989504E1,8.13252E2,2.3613457E3,2.688994E0,1.1732715E1],"tree_param":{"num_deleted":"0","num_feature":"6","num_nodes":"127","size_leaf_vector":"1"}},{"base_weights":[7.015107E-4,-4.53635E-2,3.5072187E-1,-1.400793E-1,1.2160322E-2,2.631111E-1,7E-1,-5.1511046E-2,-2.2545908E-1,1.5332983E-1,-5.4700717E-2,1.3574518E-1,4.081559E-1,3.024667E-1,7E-1,-1.8279715E-1,-7.012961E-3,-2.9418543E-1,-1.8133774E-1,2.5333647E-2,2.2060779E-1,-9.030178E-2,6.269421E-2,-3.7558082E-2,2.0751761E-1,2.0872124E-1,5.1058203E-1,8.088716E-2,3.5321063E-1,2.4474995E-1,7E-1,-2.571331E-1,-1.4774753E-1,-1.1985877E-1,4.7257036E-2,-2.4909776E-1,-3.3089405E-1,-1.3158418E-1,-2.3995094E-1,5.4170787E-3,2.703418E-1,1.9277756E-1,4.2139104E-1,-1.6511539E-1,-4.6380356E-2,1.686773E-1,6.9856304E-3,-1.19984746E-1,4.2585175E-2,2.3513855E-2,2.7219516E-1,2.6426354E-1,3.207294E-2,4.229507E-1,7E-1,-1.9255386E-1,1.4776643E-1,3.0466193E-1,5.5346334E-1,5.822025E-2,7E-1,5.660569E-1,7E-1,-3.0769879E-2,-2.1801759E-2,5.415641E-2,-1.5307428E-2,3.6629435E-2,-1.3001471E-2,4.346114E-2,3.6856066E-3,-2.3409905E-2,-3.528143E-2,-3.9840512E-2,-3.0651286E-2,-3.051123E-2,-1.1449042E-2,-3.1382468E-2,-2.0287937E-2,2.787595E-2,-6.082913E-4,2.003458E-2,4.0408257E-2,2.9768033E-2,1.52902305E-2,6.025908E-2,3.6237333E-2,-1.241987E-2,-2.206107E-2,-2.8058907E-4,-1.2500088E-2,3.227096E-3,2.321424E-2,-3.513446E-3,9.793012E-3,-1.7570008E-2,-5.381364E-3,-4.3668402E-3,1.508035E-2,-1.5959239E-2,6.671879E-3,1.8672287E-2,3.6098916E-2,2.3016611E-2,5.4518234E-2,1.1027525E-2,-6.73034E-3,4.6713974E-2,1.8064154E-2,4.6112802E-2,7E-2,-4.5396816E-2,-1.2802101E-2,3.85461E-3,3.4923207E-2,2.5693238E-2,5.6224313E-2,2.6152808E-2,6.1267365E-2,-8.178088E-4,3.0586436E-2,3.0977327E-2,7E-2,3.083366E-2,7E-2,7E-2,-4.7799563E-3],"categories":[],"categories_nodes":[],"categories_segments":[],"categories_sizes":[],"default_left":[0,0,0,0,0,0,0,0,0,0,0,0,0,0,0,0,0,0,0,0,0,0,0,0,0,0,0,0,0,0,0,0,0,0,0,0,0,0,0,0,0,0,0,0,0,0,0,0,0,0,0,0,0,0,0,0,0,0,0,0,0,0,0,0,0,0,0,0,0,0,0,0,0,0,0,0,0,0,0,0,0,0,0,0,0,0,0,0,0,0,0,0,0,0,0,0,0,0,0,0,0,0,0,0,0,0,0,0,0,0,0,0,0,0,0,0,0,0,0,0,0,0,0,0,0,0,0],"id":3,"left_children":[1,3,5,7,9,11,13,15,17,19,21,23,25,27,29,31,33,35,37,39,41,43,45,47,49,51,53,55,57,59,61,63,65,67,69,71,73,75,77,79,81,83,85,87,89,91,93,95,97,99,101,103,105,107,109,111,113,115,117,119,121,123,125,-1,-1,-1,-1,-1,-1,-1,-1,-1,-1,-1,-1,-1,-1,-1,-1,-1,-1,-1,-1,-1,-1,-1,-1,-1,-1,-1,-1,-1,-1,-1,-1,-1,-1,-1,-1,-1,-1,-1,-1,-1,-1,-1,-1,-1,-1,-1,-1,-1,-1,-1,-1,-1,-1,-1,-1,-1,-1,-1,-1,-1,-1,-1,-1],"loss_changes":[3.6814084E3,1.099322E3,8.291138E2,5.7649927E2,1.1848656E3,3.9377515E2,2.590891E2,2.1861636E2,1.1765369E2,3.4742712E2,3.5603174E2,1.4121402E2,2.0349146E2,1.844017E1,3.7111084E1,2.464325E1,1.7117484E2,2.503418E1,6.891736E1,6.7834366E1,1.4769177E2,2.1477478E2,1.17036064E2,2.1973188E1,9.553342E1,3.318985E1,1.3685303E2,5.649458E0,1.2821884E1,1.6472263E1,1.513501E1,5.933838E0,2.3728989E1,4.486313E1,7.602484E1,1.0518127E1,1.3641663E1,3.790445E1,2.9661133E1,4.0418427E1,9.702316E0,9.711774E1,3.4200134E1,5.4874573E1,1.4109927E2,5.9116882E1,4.9778854E1,6.035553E0,1.5751959E1,1.6537064E1,4.5013184E1,2.4530731E1,6.3064694E0,5.2029846E1,1.4255615E1,9.6820354E-1,5.4332304E0,1.3104919E1,4.3255386E0,2.1807709E0,5.64682E0,4.553598E1,6.359131E0,0E0,0E0,0E0,0E0,0E0,0E0,0E0,0E0,0E0,0E0,0E0,0E0,0E0,0E0,0E0,0E0,0E0,0E0,0E0,0E0,0E0,0E0,0E0,0E0,0E0,0E0,0E0,0E0,0E0,0E0,0E0,0E0,0E0,0E0,0E0,0E0,0E0,0E0,0E0,0E0,0E0,0E0,0E0,0E0,0E0,0E0,0E0,0E0,0E0,0E0,0E0,0E0,0E0,0E0,0E0,0E0,0E0,0E0,0E0,0E0,0E0,0E0,0E0,0E0],"parents":[2147483647,0,0,1,1,2,2,3,3,4,4,5,5,6,6,7,7,8,8,9,9,10,10,11,11,12,12,13,13,14,14,15,15,16,16,17,17,18,18,19,19,20,20,21,21,22,22,23,23,24,24,25,25,26,26,27,27,28,28,29,29,30,30,31,31,32,32,33,33,34,34,35,35,36,36,37,37,38,38,39,39,40,40,41,41,42,42,43,43,44,44,45,45,46,46,47,47,48,48,49,49,50,50,51,51,52,52,53,53,54,54,55,55,56,56,57,57,58,58,59,59,60,60,61,61,62,62],"right_children":[2,4,6,8,10,12,14,16,18,20,22,24,26,28,30,32,34,36,38,40,42,44,46,48,50,52,54,56,58,60,62,64,66,68,70,72,74,76,78,80,82,84,86,88,90,92,94,96,98,100,102,104,106,108,110,112,114,116,118,120,122,124,126,-1,-1,-1,-1,-1,-1,-1,-1,-1,-1,-1,-1,-1,-1,-1,-1,-1,-1,-1,-1,-1,-1,-1,-1,-1,-1,-1,-1,-1,-1,-1,-1,-1,-1,-1,-1,-1,-1,-1,-1,-1,-1,-1,-1,-1,-1,-1,-1,-1,-1,-1,-1,-1,-1,-1,-1,-1,-1,-1,-1,-1,-1,-1,-1],"split_conditions":[2.0505311E0,4.51443E-2,3.3508701E0,2.7668893E-2,1.04013324E-1,6.0872E-3,-2.5008726E-1,-3.369585E-1,5E-1,5E-1,6.196009E-1,5E-1,5E-1,5.431233E-1,5.0933516E-1,5.9918624E-1,5E-1,6E-1,2.6568198E-1,6.6759944E-1,5.713062E-1,5E-1,4.1818857E-1,-2.373616E-1,7.472869E-1,-1.7640595E-1,2.6912796E0,5E-1,4.6955876E0,-3.2350924E-2,5E-1,-6.24684E-1,4.4171467E-1,5.567069E-1,3.7040216E-1,5.085626E-1,-3.369585E-1,-4.4413105E-1,-2.1995898E-1,-4.2986563E-1,8.5862654E-1,-1.677988E-1,-1.9035177E-1,4.3746775E-1,4.6352422E-1,5E-1,9.014623E-1,8.738995E-1,2.4564176E0,3.4380767E-1,2.5078404E0,6.7806005E-1,-4.4614606E-2,-2.8334979E-2,6.964835E-2,3.0957377E-1,-4.1635254E-1,1.3233923E0,5E-1,-6.0193703E-2,-1.5062737E-1,1.4292552E0,-8.9998515E-3,-3.0769879E-2,-2.1801759E-2,5.415641E-2,-1.5307428E-2,3.6629435E-2,-1.3001471E-2,4.346114E-2,3.6856066E-3,-2.3409905E-2,-3.528143E-2,-3.9840512E-2,-3.0651286E-2,-3.051123E-2,-1.1449042E-2,-3.1382468E-2,-2.0287937E-2,2.787595E-2,-6.082913E-4,2.003458E-2,4.0408257E-2,2.9768033E-2,1.52902305E-2,6.025908E-2,3.6237333E-2,-1.241987E-2,-2.206107E-2,-2.8058907E-4,-1.2500088E-2,3.227096E-3,2.321424E-2,-3.513446E-3,9.793012E-3,-1.7570008E-2,-5.381364E-3,-4.3668402E-3,1.508035E-2,-1.5959239E-2,6.671879E-3,1.8672287E-2,3.6098916E-2,2.3016611E-2,5.4518234E-2,1.1027525E-2,-6.73034E-3,4.6713974E-2,1.8064154E-2,4.6112802E-2,7E-2,-4.5396816E-2,-1.2802101E-2,3.85461E-3,3.4923207E-2,2.5693238E-2,5.6224313E-2,2.6152808E-2,6.1267365E-2,-8.178088E-4,3.0586436E-2,3.0977327E-2,7E-2,3.083366E-2,7E-2,7E-2,-4.7799563E-3],"split_indices":[3,0,3,1,1,0,0,0,5,5,0,5,5,2,2,2,5,4,1,0,0,5,1,0,2,1,3,5,3,0,5,0,3,3,3,1,0,0,0,1,0,1,1,1,1,5,0,2,3,2,3,0,1,1,0,2,1,2,5,0,1,2,1,0,0,0,0,0,0,0,0,0,0,0,0,0,0,0,0,0,0,0,0,0,0,0,0,0,0,0,0,0,0,0,0,0,0,0,0,0,0,0,0,0,0,0,0,0,0,0,0,0,0,0,0,0,0,0,0,0,0,0,0,0,0,0,0],"split_type":[0,0,0,0,0,0,0,0,0,0,0,0,0,0,0,0,0,0,0,0,0,0,0,0,0,0,0,0,0,0,0,0,0,0,0,0,0,0,0,0,0,0,0,0,0,0,0,0,0,0,0,0,0,0,0,0,0,0,0,0,0,0,0,0,0,0,0,0,0,0,0,0,0,0,0,0,0,0,0,0,0,0,0,0,0,0,0,0,0,0,0,0,0,0,0,0,0,0,0,0,0,0,0,0,0,0,0,0,0,0,0,0,0,0,0,0,0,0,0,0,0,0,0,0,0,0,0],"sum_hessian":[2.2832095E5,2.0176783E5,2.6553121E4,7.623754E4,1.2553029E5,2.1317379E4,5.235741E3,3.7420836E4,3.88167E4,4.034503E4,8.518526E4,1.1351444E4,9.965935E3,1.6415671E3,3.594174E3,9.47194E3,2.7948896E4,1.5174389E4,2.3642312E4,1.3900577E4,2.6444453E4,6.536344E4,1.9821818E4,3.3245034E3,8.026941E3,3.3826301E3,6.5833047E3,3.0636804E2,1.3351991E3,1.8042477E2,3.4137495E3,3.0329937E3,6.4389463E3,9.075867E3,1.887303E4,6.81347E3,8.360918E3,1.2789361E4,1.085295E4,1.2856502E4,1.0440753E3,2.3226965E4,3.2174888E3,2.4177652E4,4.118579E4,6.8286284E3,1.299319E4,1.6386592E3,1.6858441E3,2.088018E3,5.938923E3,2.5730942E3,8.095361E2,4.866125E3,1.7171798E3,5.9837734E1,2.4653032E2,1.0766906E3,2.5850854E2,1.3147269E2,4.8952084E1,8.69939E2,2.5438103E3,1.3198809E3,1.7131129E3,4.8604214E1,6.3903423E3,1.8500113E2,8.890866E3,4.924474E2,1.8380582E4,5.9554893E3,8.5798126E2,2.214279E3,6.1466387E3,1.1453578E3,1.1644004E4,3.6239412E3,7.229009E3,5.1811945E2,1.2338383E4,6.870115E2,3.570638E2,6.39547E3,1.6831494E4,7.8822437E2,2.4292644E3,1.3918664E4,1.0258989E4,2.6499693E4,1.4686097E4,2.1687703E3,4.6598584E3,8.880762E3,4.112428E3,8.887156E2,7.4994366E2,9.384584E2,7.4738574E2,3.9810803E2,1.68991E3,3.027643E3,2.9112795E3,2.2962043E3,2.7688977E2,4.5297015E2,3.5656592E2,4.114797E3,7.5132776E2,2.574245E2,1.4597554E3,1.0652234E1,4.91855E1,1.6063617E2,8.589415E1,9.100557E2,1.6663489E2,4.45032E1,2.1400534E2,1.04437805E2,2.7034885E1,3.9300415E1,9.65167E0,4.008981E2,4.6904092E2,2.5325627E3,1.1247683E1],"tree_param":{"num_deleted":"0","num_feature":"6","num_nodes":"127","size_leaf_vector":"1"}},{"base_weights":[8.009123E-4,-4.3373402E-2,3.2472974E-1,-1.4447317E-1,6.6052964E-3,2.4376987E-1,6.454983E-1,-6.5387465E-2,-2.3479567E-1,1.3108683E-1,-5.7446986E-2,1.2712763E-1,3.7324074E-1,3.1584242E-1,7E-1,-1.6585608E-1,-1.4663122E-2,-2.9802927E-1,-1.9385353E-1,1.3647109E-2,1.911471E-1,-9.577655E-2,4.6902582E-2,-3.5862856E-2,1.9299345E-1,1.9410385E-1,4.627255E-1,2.5941384E-1,5.5804867E-1,4.8739612E-1,7E-1,-2.750463E-1,-1.3665274E-1,-1.525509E-1,2.624537E-2,-3.8678548E-1,-2.7934405E-1,-1.4262778E-1,-2.4915552E-1,-2.7309295E-2,1.2584889E-1,1.2654337E-1,2.6339117E-1,-1.3843815E-1,-2.071963E-2,8.485855E-2,-7.9215825E-2,-1.1545126E-1,4.0272344E-2,1.002082E-1,3.0110803E-1,2.4440706E-1,3.0362453E-2,3.8483453E-1,6.778667E-1,6.5302424E-2,3.2728744E-1,1.280314E-1,6.412856E-1,2.074587E-1,5.778513E-1,7E-1,-6.864987E-2,5.063463E-2,-2.7695939E-2,2.9744357E-3,-1.5136368E-2,-4.5163287E-3,-1.9655513E-2,4.435524E-2,1.7472176E-3,-3.6828782E-2,-4.4819478E-2,-2.4273792E-2,-3.1117124E-2,-3.068437E-2,-1.2448312E-2,-3.2699358E-2,-2.1880174E-2,4.5343183E-2,-3.2432855E-3,3.2391716E-2,9.5089525E-3,1.6346363E-2,3.040216E-3,4.16945E-2,2.184658E-2,-1.0063676E-2,-1.9648306E-2,4.436679E-3,-7.7490695E-3,-1.5246124E-3,1.3275159E-2,-1.2409974E-2,1.8314042E-4,-1.700188E-2,-5.1427684E-3,-4.168838E-3,1.4112665E-2,-8.36965E-3,1.3927667E-2,3.1797376E-2,-9.465286E-3,1.7847776E-2,3.61972E-2,1.0363436E-2,-6.4412593E-3,4.2056542E-2,1.5171184E-2,5.515026E-2,7E-2,1.0339307E-3,3.6555737E-2,1.2271901E-2,3.750304E-2,-1.2533754E-2,3.8913738E-2,4.556396E-2,7E-2,9.408748E-3,3.9100006E-2,4.1560795E-2,7E-2,6.2735125E-2,7E-2,7.4035744E-3,-1.2732728E-2],"categories":[],"categories_nodes":[],"categories_segments":[],"categories_sizes":[],"default_left":[0,0,0,0,0,0,0,0,0,0,0,0,0,0,0,0,0,0,0,0,0,0,0,0,0,0,0,0,0,0,0,0,0,0,0,0,0,0,0,0,0,0,0,0,0,0,0,0,0,0,0,0,0,0,0,0,0,0,0,0,0,0,0,0,0,0,0,0,0,0,0,0,0,0,0,0,0,0,0,0,0,0,0,0,0,0,0,0,0,0,0,0,0,0,0,0,0,0,0,0,0,0,0,0,0,0,0,0,0,0,0,0,0,0,0,0,0,0,0,0,0,0,0,0,0,0,0],"id":4,"left_children":[1,3,5,7,9,11,13,15,17,19,21,23,25,27,29,31,33,35,37,39,41,43,45,47,49,51,53,55,57,59,61,63,65,67,69,71,73,75,77,79,81,83,85,87,89,91,93,95,97,99,101,103,105,107,109,111,113,115,117,119,121,123,125,-1,-1,-1,-1,-1,-1,-1,-1,-1,-1,-1,-1,-1,-1,-1,-1,-1,-1,-1,-1,-1,-1,-1,-1,-1,-1,-1,-1,-1,-1,-1,-1,-1,-1,-1,-1,-1,-1,-1,-1,-1,-1,-1,-1,-1,-1,-1,-1,-1,-1,-1,-1,-1,-1,-1,-1,-1,-1,-1,-1,-1,-1,-1,-1],"loss_changes":[3.266496E3,1.0150287E3,7.1126025E2,4.7468494E2,1.0718551E3,3.3030835E2,2.9000854E2,1.8056981E2,8.025806E1,3.221372E2,3.5501178E2,1.2356505E2,1.6609363E2,2.827739E1,4.1151123E1,3.786783E1,1.3282367E2,2.0109253E1,5.3317627E1,7.1023735E1,1.4099829E2,2.0785803E2,1.1415173E2,2.0081322E1,8.219772E1,2.8452423E1,1.1558032E2,2.2224564E1,1.3951576E1,2.320787E1,7.098633E0,3.8885498E0,2.2967651E1,2.5449959E1,6.647735E1,2.2402039E0,1.1661438E1,2.9100967E1,2.1322693E1,2.7903849E1,2.5149094E1,5.662526E1,9.8310425E1,9.079602E1,8.6934784E1,8.787877E1,2.0068382E1,5.6514454E0,1.4009562E1,3.1716652E1,2.5296112E1,2.0421753E1,5.6535916E0,4.2231018E1,2.2269592E1,7.2359576E0,1.2170105E1,4.3379602E0,1.0951157E1,4.6771984E0,2.1802261E1,3.1188965E0,1.1696572E-1,0E0,0E0,0E0,0E0,0E0,0E0,0E0,0E0,0E0,0E0,0E0,0E0,0E0,0E0,0E0,0E0,0E0,0E0,0E0,0E0,0E0,0E0,0E0,0E0,0E0,0E0,0E0,0E0,0E0,0E0,0E0,0E0,0E0,0E0,0E0,0E0,0E0,0E0,0E0,0E0,0E0,0E0,0E0,0E0,0E0,0E0,0E0,0E0,0E0,0E0,0E0,0E0,0E0,0E0,0E0,0E0,0E0,0E0,0E0,0E0,0E0,0E0,0E0,0E0],"parents":[2147483647,0,0,1,1,2,2,3,3,4,4,5,5,6,6,7,7,8,8,9,9,10,10,11,11,12,12,13,13,14,14,15,15,16,16,17,17,18,18,19,19,20,20,21,21,22,22,23,23,24,24,25,25,26,26,27,27,28,28,29,29,30,30,31,31,32,32,33,33,34,34,35,35,36,36,37,37,38,38,39,39,40,40,41,41,42,42,43,43,44,44,45,45,46,46,47,47,48,48,49,49,50,50,51,51,52,52,53,53,54,54,55,55,56,56,57,57,58,58,59,59,60,60,61,61,62,62],"right_children":[2,4,6,8,10,12,14,16,18,20,22,24,26,28,30,32,34,36,38,40,42,44,46,48,50,52,54,56,58,60,62,64,66,68,70,72,74,76,78,80,82,84,86,88,90,92,94,96,98,100,102,104,106,108,110,112,114,116,118,120,122,124,126,-1,-1,-1,-1,-1,-1,-1,-1,-1,-1,-1,-1,-1,-1,-1,-1,-1,-1,-1,-1,-1,-1,-1,-1,-1,-1,-1,-1,-1,-1,-1,-1,-1,-1,-1,-1,-1,-1,-1,-1,-1,-1,-1,-1,-1,-1,-1,-1,-1,-1,-1,-1,-1,-1,-1,-1,-1,-1,-1,-1,-1,-1,-1,-1],"split_conditions":[2.0505311E0,-3.8885802E-4,3.3508701E0,5.357237E-2,1.04013324E-1,6.0872E-3,-1.950967E-1,5E-1,5E-1,5E-1,5.713062E-1,5E-1,5E-1,4.6955876E0,1.1186962E0,-4.2986563E-1,-3.672623E-1,-4.0265283E-1,2.6568198E-1,4.131377E-1,2.5704187E-1,1E0,7.487758E-1,-2.373616E-1,1.0582086E0,-1.7640595E-1,2.6912796E0,-5.796939E-1,5.431233E-1,5E-1,-2.8334979E-2,3.0163276E-1,-3.9013344E-1,-3.369585E-1,3.0163276E-1,5.5154324E-1,6E-1,-4.4413105E-1,-2.9329157E-1,3.7040216E-1,-3.0164647E-1,1.7560984E-3,-1.9035177E-1,4.3746775E-1,3.4712788E-1,5E-1,8.7861985E-1,8.738995E-1,2.4564176E0,4.9116108E-1,-3.2422002E-2,3.9034417E-1,-4.4614606E-2,-5.010274E-3,1.6558301E0,1.0957059E0,5E-1,-5.796939E-1,-3.369585E-1,-3.9013344E-1,-3.2350924E-2,5E-1,1.7560984E-3,5.063463E-2,-2.7695939E-2,2.9744357E-3,-1.5136368E-2,-4.5163287E-3,-1.9655513E-2,4.435524E-2,1.7472176E-3,-3.6828782E-2,-4.4819478E-2,-2.4273792E-2,-3.1117124E-2,-3.068437E-2,-1.2448312E-2,-3.2699358E-2,-2.1880174E-2,4.5343183E-2,-3.2432855E-3,3.2391716E-2,9.5089525E-3,1.6346363E-2,3.040216E-3,4.16945E-2,2.184658E-2,-1.0063676E-2,-1.9648306E-2,4.436679E-3,-7.7490695E-3,-1.5246124E-3,1.3275159E-2,-1.2409974E-2,1.8314042E-4,-1.700188E-2,-5.1427684E-3,-4.168838E-3,1.4112665E-2,-8.36965E-3,1.3927667E-2,3.1797376E-2,-9.465286E-3,1.7847776E-2,3.61972E-2,1.0363436E-2,-6.4412593E-3,4.2056542E-2,1.5171184E-2,5.515026E-2,7E-2,1.0339307E-3,3.6555737E-2,1.2271901E-2,3.750304E-2,-1.2533754E-2,3.8913738E-2,4.556396E-2,7E-2,9.408748E-3,3.9100006E-2,4.1560795E-2,7E-2,6.2735125E-2,7E-2,7.4035744E-3,-1.2732728E-2],"split_indices":[3,0,3,1,1,0,0,5,5,5,0,5,5,3,2,0,0,0,1,0,0,5,1,0,2,1,3,0,2,5,1,3,1,1,3,1,4,0,0,3,1,1,1,1,1,5,0,2,3,2,1,0,1,1,2,2,5,1,0,1,0,5,1,0,0,0,0,0,0,0,0,0,0,0,0,0,0,0,0,0,0,0,0,0,0,0,0,0,0,0,0,0,0,0,0,0,0,0,0,0,0,0,0,0,0,0,0,0,0,0,0,0,0,0,0,0,0,0,0,0,0,0,0,0,0,0,0],"split_type":[0,0,0,0,0,0,0,0,0,0,0,0,0,0,0,0,0,0,0,0,0,0,0,0,0,0,0,0,0,0,0,0,0,0,0,0,0,0,0,0,0,0,0,0,0,0,0,0,0,0,0,0,0,0,0,0,0,0,0,0,0,0,0,0,0,0,0,0,0,0,0,0,0,0,0,0,0,0,0,0,0,0,0,0,0,0,0,0,0,0,0,0,0,0,0,0,0,0,0,0,0,0,0,0,0,0,0,0,0,0,0,0,0,0,0,0,0,0,0,0,0,0,0,0,0,0,0],"sum_hessian":[2.2827531E5,2.0088184E5,2.7393479E4,6.645367E4,1.3442817E5,2.1874307E4,5.519171E3,3.5431684E4,3.1021988E4,4.5670133E4,8.875804E4,1.1508296E4,1.0366012E4,2.0785654E3,3.4406055E3,1.1886358E4,2.3545324E4,1.2189495E4,1.8832492E4,1.5453716E4,3.0216416E4,6.491399E4,2.384405E4,3.3122673E3,8.196028E3,3.4542397E3,6.911772E3,1.6874895E3,3.9107593E2,9.202538E2,2.5203518E3,2.5064434E3,9.379915E3,5.386533E3,1.8158791E4,2.1164583E3,1.0073037E4,9.778412E3,9.05408E3,1.1321754E4,4.1319614E3,1.5953163E4,1.4263253E4,4.13884E4,2.352559E4,1.8328365E4,5.5156865E3,1.619156E3,1.6931112E3,4.411743E3,3.784285E3,2.6420725E3,8.121671E2,5.076599E3,1.8351726E3,4.3769363E2,1.2497958E3,6.3834297E1,3.2724164E2,2.2554349E2,6.947103E2,2.5085073E3,1.1844426E1,5.477596E0,2.5009658E3,7.6182336E2,8.618092E3,1.5662621E3,3.820271E3,3.7287775E2,1.7785914E4,1.6318972E3,4.8456113E2,4.6888115E3,5.384225E3,9.71357E2,8.807056E3,2.5374282E3,6.516652E3,1.1846794E2,1.1203286E4,5.5414343E2,3.577818E3,1.1526171E4,4.4269927E3,3.226585E3,1.1036668E4,2.506664E4,1.6321758E4,1.0960223E4,1.2565366E4,5.9314E3,1.2396965E4,3.5494639E3,1.9662225E3,8.732372E2,7.459188E2,9.343692E2,7.5874207E2,7.728078E2,3.6389355E3,3.6297947E3,1.5449026E2,1.6943921E3,9.4768054E2,4.5799295E2,3.5417416E2,4.401217E3,6.753821E2,1.071903E3,7.6326965E2,3.708434E2,6.6850235E1,2.3716496E2,1.01263086E3,3.2661037E1,3.117326E1,2.0955592E2,1.1768571E2,1.4035844E2,8.518504E1,4.0296768E2,2.917426E2,6.8275446E2,1.8257528E3,3.375207E0,8.469219E0],"tree_param":{"num_deleted":"0","num_feature":"6","num_nodes":"127","size_leaf_vector":"1"}},{"base_weights":[8.64812E-4,-5.008763E-2,2.5379607E-1,-1.4512251E-1,-1.6910679E-3,1.6616851E-1,4.961514E-1,-7.782017E-2,-2.4209294E-1,9.639996E-2,-6.4725436E-2,5.4420426E-2,2.810372E-1,3.3031675E-1,7E-1,-1.7554834E-1,-2.8990354E-2,-3.2559898E-1,-2.1331716E-1,-1.26546E-2,1.506122E-1,-1.0015399E-1,4.578242E-2,-3.4096316E-2,1.3527992E-1,1.3902496E-1,3.5822985E-1,1.8367475E-1,4.2491332E-1,4.7562075E-1,7E-1,2.345218E-1,-1.828925E-1,-1.6876426E-1,4.4095577E-3,-3.729277E-1,-2.9587477E-1,-2.5319055E-1,-1.4440879E-1,-4.960735E-2,9.560376E-2,1.2509039E-1,3.1742147E-1,-1.6945581E-1,-5.9691824E-2,8.068247E-2,-8.2099155E-2,-1.3581409E-1,1.5495998E-2,1.6264385E-1,-1.338558E-1,2.987539E-1,7.9694726E-2,2.5685847E-1,4.528299E-1,1.4781152E-1,4.413332E-1,1.8807864E-1,5.0395906E-1,3.3859852E-1,7E-1,4.1777283E-1,7E-1,1.4023542E-2,7E-2,-2.8052881E-2,-1.6052613E-2,-7.448328E-3,-2.0434147E-2,3.470688E-3,-7.919552E-3,-3.567942E-2,-4.3515943E-2,-3.3205166E-2,-2.3428246E-2,-2.2838457E-2,-3.0815199E-2,-1.1118357E-2,-2.209256E-2,7.1710125E-3,-6.767755E-3,6.936261E-3,2.858137E-2,1.745245E-2,5.814619E-3,2.8451899E-2,5.7067066E-2,-2.1580813E-2,-1.3622251E-2,-2.6175308E-3,-1.291547E-2,-8.373375E-4,1.2185502E-2,-1.303698E-2,-1.6880449E-3,-2.2317989E-2,-8.000517E-3,-1.3401716E-2,5.424795E-3,2.0284674E-3,2.1963589E-2,-1.686897E-2,2.729765E-3,1.2768276E-2,3.603627E-2,1.1167111E-2,-7.2993985E-3,1.8442927E-2,3.5703592E-2,3.9760496E-2,6.756283E-2,5.182261E-3,2.1021038E-2,-2.0843474E-2,4.767548E-2,6.231668E-3,2.7367229E-2,4.361562E-2,7E-2,4.6170365E-2,2.3883829E-2,2.1362652E-4,7E-2,7E-2,3.4718886E-2,7E-2,1.3771896E-2],"categories":[],"categories_nodes":[],"categories_segments":[],"categories_sizes":[],"default_left":[0,0,0,0,0,0,0,0,0,0,0,0,0,0,0,0,0,0,0,0,0,0,0,0,0,0,0,0,0,0,0,0,0,0,0,0,0,0,0,0,0,0,0,0,0,0,0,0,0,0,0,0,0,0,0,0,0,0,0,0,0,0,0,0,0,0,0,0,0,0,0,0,0,0,0,0,0,0,0,0,0,0,0,0,0,0,0,0,0,0,0,0,0,0,0,0,0,0,0,0,0,0,0,0,0,0,0,0,0,0,0,0,0,0,0,0,0,0,0,0,0,0,0,0,0,0,0],"id":5,"left_children":[1,3,5,7,9,11,13,15,17,19,21,23,25,27,29,31,33,35,37,39,41,43,45,47,49,51,53,55,57,59,61,63,65,67,69,71,73,75,77,79,81,83,85,87,89,91,93,95,97,99,101,103,105,107,109,111,113,115,117,119,121,123,125,-1,-1,-1,-1,-1,-1,-1,-1,-1,-1,-1,-1,-1,-1,-1,-1,-1,-1,-1,-1,-1,-1,-1,-1,-1,-1,-1,-1,-1,-1,-1,-1,-1,-1,-1,-1,-1,-1,-1,-1,-1,-1,-1,-1,-1,-1,-1,-1,-1,-1,-1,-1,-1,-1,-1,-1,-1,-1,-1,-1,-1,-1,-1,-1],"loss_changes":[2.9415383E3,8.737748E2,8.1266895E2,4.1833313E2,7.7831335E2,3.6080493E2,4.0070166E2,1.8057408E2,6.3036987E1,2.9114224E2,3.00031E2,1.0199346E2,1.5189673E2,8.350659E1,5.39104E1,3.8012054E1,1.1780609E2,9.355469E0,5.3636597E1,6.542217E1,1.399964E2,1.6270905E2,8.304001E1,3.4321297E1,5.4865997E1,4.6248375E1,8.599133E1,2.178415E1,6.8460144E1,3.448372E1,2.8648926E1,1.752939E1,2.7003815E1,1.630986E1,5.1596268E1,2.446991E0,9.14209E0,1.6798462E1,1.81848E1,2.6732246E1,2.0752438E1,9.4405396E1,3.6202423E1,3.292157E1,8.529866E1,5.3593834E1,1.25566025E1,1.0854843E1,2.6511374E1,5.4843018E1,3.8658123E0,1.388797E1,1.7397572E1,3.1400604E1,5.6863586E1,1.2430286E1,6.7371597E0,9.8643E0,4.973584E1,8.293335E0,1.1713242E1,1.3225899E1,1.1720093E1,0E0,0E0,0E0,0E0,0E0,0E0,0E0,0E0,0E0,0E0,0E0,0E0,0E0,0E0,0E0,0E0,0E0,0E0,0E0,0E0,0E0,0E0,0E0,0E0,0E0,0E0,0E0,0E0,0E0,0E0,0E0,0E0,0E0,0E0,0E0,0E0,0E0,0E0,0E0,0E0,0E0,0E0,0E0,0E0,0E0,0E0,0E0,0E0,0E0,0E0,0E0,0E0,0E0,0E0,0E0,0E0,0E0,0E0,0E0,0E0,0E0,0E0,0E0,0E0],"parents":[2147483647,0,0,1,1,2,2,3,3,4,4,5,5,6,6,7,7,8,8,9,9,10,10,11,11,12,12,13,13,14,14,15,15,16,16,17,17,18,18,19,19,20,20,21,21,22,22,23,23,24,24,25,25,26,26,27,27,28,28,29,29,30,30,31,31,32,32,33,33,34,34,35,35,36,36,37,37,38,38,39,39,40,40,41,41,42,42,43,43,44,44,45,45,46,46,47,47,48,48,49,49,50,50,51,51,52,52,53,53,54,54,55,55,56,56,57,57,58,58,59,59,60,60,61,61,62,62],"right_children":[2,4,6,8,10,12,14,16,18,20,22,24,26,28,30,32,34,36,38,40,42,44,46,48,50,52,54,56,58,60,62,64,66,68,70,72,74,76,78,80,82,84,86,88,90,92,94,96,98,100,102,104,106,108,110,112,114,116,118,120,122,124,126,-1,-1,-1,-1,-1,-1,-1,-1,-1,-1,-1,-1,-1,-1,-1,-1,-1,-1,-1,-1,-1,-1,-1,-1,-1,-1,-1,-1,-1,-1,-1,-1,-1,-1,-1,-1,-1,-1,-1,-1,-1,-1,-1,-1,-1,-1,-1,-1,-1,-1,-1,-1,-1,-1,-1,-1,-1,-1,-1,-1,-1,-1,-1,-1],"split_conditions":[1.8516802E0,1.4931746E-2,2.856036E0,1.20418236E-1,1.7658822E-1,3.1776134E-2,1.3640988E0,5E-1,-2.9329157E-1,5E-1,6.196009E-1,9.879698E-1,5E-1,-2.7799404E-1,5E-1,5.567069E-1,-3.7815624E-1,-5.174423E-1,1E0,4.3264395E-1,5.580855E-1,5E-1,7.9761124E-1,5E-1,-3.2422002E-2,-4.1635254E-1,6E-1,4.6955876E0,5E-1,3.7629602E0,-2.097491E-1,5.4477465E-1,-4.2986563E-1,-3.1003538E-1,1.7560984E-3,6.025704E-1,1E0,4.13107E-1,4.3266386E-1,-2.149505E-1,8.1777745E-1,6.1124717E-3,9.014623E-1,9.002895E-1,5.1496613E-1,5E-1,8.7861985E-1,-4.1635254E-1,5.0933516E-1,5E-1,-1.3059248E-2,6E-1,4.0240094E-2,1.6197412E0,1.9072359E0,-5.796939E-1,3.0957377E-1,6E-1,4.113712E0,-5.587208E-1,-2.7799404E-1,1.3793905E0,6.1124717E-3,1.4023542E-2,7E-2,-2.8052881E-2,-1.6052613E-2,-7.448328E-3,-2.0434147E-2,3.470688E-3,-7.919552E-3,-3.567942E-2,-4.3515943E-2,-3.3205166E-2,-2.3428246E-2,-2.2838457E-2,-3.0815199E-2,-1.1118357E-2,-2.209256E-2,7.1710125E-3,-6.767755E-3,6.936261E-3,2.858137E-2,1.745245E-2,5.814619E-3,2.8451899E-2,5.7067066E-2,-2.1580813E-2,-1.3622251E-2,-2.6175308E-3,-1.291547E-2,-8.373375E-4,1.2185502E-2,-1.303698E-2,-1.6880449E-3,-2.2317989E-2,-8.000517E-3,-1.3401716E-2,5.424795E-3,2.0284674E-3,2.1963589E-2,-1.686897E-2,2.729765E-3,1.2768276E-2,3.603627E-2,1.1167111E-2,-7.2993985E-3,1.8442927E-2,3.5703592E-2,3.9760496E-2,6.756283E-2,5.182261E-3,2.1021038E-2,-2.0843474E-2,4.767548E-2,6.231668E-3,2.7367229E-2,4.361562E-2,7E-2,4.6170365E-2,2.3883829E-2,2.1362652E-4,7E-2,7E-2,3.4718886E-2,7E-2,1.3771896E-2],"split_indices":[3,0,3,1,1,0,2,5,0,5,0,2,5,0,5,3,0,0,5,0,0,5,1,5,1,1,4,3,5,3,0,3,0,1,1,1,5,1,1,1,0,1,0,3,1,5,0,0,2,5,0,4,1,2,2,0,2,4,3,1,0,2,1,0,0,0,0,0,0,0,0,0,0,0,0,0,0,0,0,0,0,0,0,0,0,0,0,0,0,0,0,0,0,0,0,0,0,0,0,0,0,0,0,0,0,0,0,0,0,0,0,0,0,0,0,0,0,0,0,0,0,0,0,0,0,0,0],"split_type":[0,0,0,0,0,0,0,0,0,0,0,0,0,0,0,0,0,0,0,0,0,0,0,0,0,0,0,0,0,0,0,0,0,0,0,0,0,0,0,0,0,0,0,0,0,0,0,0,0,0,0,0,0,0,0,0,0,0,0,0,0,0,0,0,0,0,0,0,0,0,0,0,0,0,0,0,0,0,0,0,0,0,0,0,0,0,0,0,0,0,0,0,0,0,0,0,0,0,0,0,0,0,0,0,0,0,0,0,0,0,0,0,0,0,0,0,0,0,0,0,0,0,0,0,0,0,0],"sum_hessian":[2.28246E5,1.8997647E5,3.8269535E4,6.4101082E4,1.2587538E5,2.8108227E4,1.0161309E4,3.784001E4,2.626107E4,4.9243895E4,7.6631484E4,1.4248392E4,1.3859834E4,6.024498E3,4.1368105E3,1.2606572E4,2.523344E4,6.727589E3,1.9533482E4,1.635154E4,3.289235E4,5.8027957E4,1.860353E4,6.802398E3,7.445994E3,4.8817036E3,8.97813E3,2.3635317E3,3.660966E3,1.0795288E3,3.057282E3,2.2126099E2,1.2385312E4,4.865974E3,2.0367465E4,2.590806E3,4.1367827E3,1.237189E4,7.161592E3,1.2190868E4,4.160672E3,2.8529143E4,4.36321E3,2.1389602E4,3.6638355E4,1.4615261E4,3.9882686E3,2.2289355E3,4.5734624E3,6.759163E3,6.8683093E2,1.3210731E3,3.5606306E3,4.335749E3,4.642381E3,2.0761309E3,2.8740094E2,9.169636E2,2.7440024E3,6.832764E2,3.9625235E2,3.6482666E2,2.6924553E3,2.1020007E2,1.106091E1,2.3062512E3,1.0079061E4,1.3339772E3,3.5319968E3,1.4950276E4,5.4171885E3,2.0627688E3,5.280372E2,2.6033098E3,1.5334729E3,8.528047E3,3.8438433E3,4.9950767E3,2.1665151E3,1.5800377E3,1.061083E4,3.6574578E3,5.0321405E2,1.6409871E4,1.2119271E4,3.8633962E3,4.9981387E2,8.929558E3,1.2460044E4,2.4714666E4,1.192369E4,4.620961E3,9.9943E3,2.2913567E3,1.6969119E3,8.676608E2,1.3612748E3,9.4088245E2,3.6325798E3,1.9327485E3,4.8264146E3,5.647184E2,1.2211259E2,3.506063E2,9.7046686E2,2.9442983E3,6.163323E2,2.5180308E3,1.8177184E3,3.7224768E3,9.199043E2,8.186391E2,1.2574918E3,1.4604984E1,2.7279596E2,3.7204678E2,5.449168E2,2.2359504E3,5.0805194E2,3.0422797E2,3.7904843E2,2.4057238E1,3.721951E2,2.1544271E1,3.4328238E2,2.6548357E3,3.7619614E1],"tree_param":{"num_deleted":"0","num_feature":"6","num_nodes":"127","size_leaf_vector":"1"}},{"base_weights":[8.622219E-4,-4.7890764E-2,2.3596883E-1,-1.3470492E-1,1.3492255E-3,1.610312E-1,4.7100925E-1,-6.926453E-2,-2.2850506E-1,8.7424584E-2,-6.641717E-2,6.628858E-2,2.734456E-1,3.2203287E-1,7E-1,-1.6638188E-1,-2.1693544E-2,-3.1994644E-1,-2.009267E-1,2.6770154E-2,1.7332308E-1,-1.0490301E-1,3.2984443E-2,-1.6988358E-2,1.3605714E-1,1.3148949E-1,3.4870827E-1,2.4408387E-1,5.238532E-1,2.8840595E-1,7E-1,3.51548E-1,-1.7193496E-1,-1.422695E-1,1.4212436E-2,-3.6823368E-1,-2.8985268E-1,-2.663326E-1,-1.5911676E-1,7E-1,2.301307E-2,1.46181E-1,3.2722047E-1,-1.7197724E-1,-6.610679E-2,6.925775E-2,-6.895486E-2,-1.1899164E-1,3.251303E-2,1.6093479E-1,-1.1645037E-1,2.6605532E-1,7.751074E-2,2.5726664E-1,4.279206E-1,5.3728342E-2,2.8786176E-1,2.6903087E-1,6.4610434E-1,5.4555106E-1,1.2747912E-1,5.1521957E-1,7E-1,4.8046898E-2,-8.630517E-3,-2.5212577E-2,-1.445087E-2,-2.4118379E-2,-1.0926012E-2,4.6348018E-3,-7.7146553E-3,-3.51719E-2,-4.324328E-2,-3.264988E-2,-2.280688E-2,-2.3164423E-2,-2.9700553E-2,-1.3138279E-2,-2.3280408E-2,7E-2,2.3893587E-2,-2.7404886E-3,6.847056E-3,2.3543661E-2,1.0419992E-2,2.9000089E-2,5.4804195E-2,-1.9729486E-2,-1.1861976E-2,-3.298562E-3,-1.2465541E-2,4.2329202E-3,1.994375E-2,-1.160642E-2,2.5848285E-4,-2.1462463E-2,-6.462322E-3,-1.1725126E-2,6.9037653E-3,3.6188911E-3,2.086999E-2,-1.6337411E-2,-1.3439605E-4,1.1575967E-2,3.1781156E-2,1.0794333E-2,-6.808785E-3,1.9623322E-2,3.739732E-2,4.831046E-2,2.4144894E-2,-1.5744494E-2,9.799792E-3,2.3465235E-2,4.4427644E-2,2.3546685E-2,7E-2,5.328917E-2,7E-2,1.7337661E-2,6.512947E-2,3.1648725E-3,5.5425506E-2,3.811374E-2,6.9062084E-2,7E-2,2.939689E-3],"categories":[],"categories_nodes":[],"categories_segments":[],"categories_sizes":[],"default_left":[0,0,0,0,0,0,0,0,0,0,0,0,0,0,0,0,0,0,0,0,0,0,0,0,0,0,0,0,0,0,0,0,0,0,0,0,0,0,0,0,0,0,0,0,0,0,0,0,0,0,0,0,0,0,0,0,0,0,0,0,0,0,0,0,0,0,0,0,0,0,0,0,0,0,0,0,0,0,0,0,0,0,0,0,0,0,0,0,0,0,0,0,0,0,0,0,0,0,0,0,0,0,0,0,0,0,0,0,0,0,0,0,0,0,0,0,0,0,0,0,0,0,0,0,0,0,0],"id":6,"left_children":[1,3,5,7,9,11,13,15,17,19,21,23,25,27,29,31,33,35,37,39,41,43,45,47,49,51,53,55,57,59,61,63,65,67,69,71,73,75,77,79,81,83,85,87,89,91,93,95,97,99,101,103,105,107,109,111,113,115,117,119,121,123,125,-1,-1,-1,-1,-1,-1,-1,-1,-1,-1,-1,-1,-1,-1,-1,-1,-1,-1,-1,-1,-1,-1,-1,-1,-1,-1,-1,-1,-1,-1,-1,-1,-1,-1,-1,-1,-1,-1,-1,-1,-1,-1,-1,-1,-1,-1,-1,-1,-1,-1,-1,-1,-1,-1,-1,-1,-1,-1,-1,-1,-1,-1,-1,-1],"loss_changes":[2.6162263E3,8.0812604E2,6.904016E2,4.1996167E2,7.036385E2,3.165797E2,3.544707E2,1.8619696E2,7.0840454E1,2.768455E2,2.5820322E2,9.373326E1,1.4520197E2,9.368164E1,3.997339E1,3.817157E1,1.1712752E2,9.35791E0,5.903705E1,8.255269E1,9.1814026E1,1.266012E2,6.966482E1,3.7142147E1,5.5161926E1,3.4205986E1,6.423865E1,3.5847473E1,5.1556335E1,9.814514E0,2.8649414E1,7.9946957E0,2.8799042E1,2.02425E1,6.1207146E1,2.4953003E0,9.021118E0,8.893555E0,2.6908691E1,1.208139E1,7.101002E1,7.0032166E1,2.693283E1,2.4061768E1,5.9776184E1,4.8701866E1,1.6664803E1,1.2482235E1,2.7100103E1,4.760913E1,4.2552385E0,1.0453598E1,1.4914864E1,2.9317078E1,4.885205E1,7.549407E0,2.9014008E1,9.885147E0,2.1357086E1,3.4933968E0,6.0442286E0,1.9807709E1,1.1904175E1,0E0,0E0,0E0,0E0,0E0,0E0,0E0,0E0,0E0,0E0,0E0,0E0,0E0,0E0,0E0,0E0,0E0,0E0,0E0,0E0,0E0,0E0,0E0,0E0,0E0,0E0,0E0,0E0,0E0,0E0,0E0,0E0,0E0,0E0,0E0,0E0,0E0,0E0,0E0,0E0,0E0,0E0,0E0,0E0,0E0,0E0,0E0,0E0,0E0,0E0,0E0,0E0,0E0,0E0,0E0,0E0,0E0,0E0,0E0,0E0,0E0,0E0,0E0,0E0],"parents":[2147483647,0,0,1,1,2,2,3,3,4,4,5,5,6,6,7,7,8,8,9,9,10,10,11,11,12,12,13,13,14,14,15,15,16,16,17,17,18,18,19,19,20,20,21,21,22,22,23,23,24,24,25,25,26,26,27,27,28,28,29,29,30,30,31,31,32,32,33,33,34,34,35,35,36,36,37,37,38,38,39,39,40,40,41,41,42,42,43,43,44,44,45,45,46,46,47,47,48,48,49,49,50,50,51,51,52,52,53,53,54,54,55,55,56,56,57,57,58,58,59,59,60,60,61,61,62,62],"right_children":[2,4,6,8,10,12,14,16,18,20,22,24,26,28,30,32,34,36,38,40,42,44,46,48,50,52,54,56,58,60,62,64,66,68,70,72,74,76,78,80,82,84,86,88,90,92,94,96,98,100,102,104,106,108,110,112,114,116,118,120,122,124,126,-1,-1,-1,-1,-1,-1,-1,-1,-1,-1,-1,-1,-1,-1,-1,-1,-1,-1,-1,-1,-1,-1,-1,-1,-1,-1,-1,-1,-1,-1,-1,-1,-1,-1,-1,-1,-1,-1,-1,-1,-1,-1,-1,-1,-1,-1,-1,-1,-1,-1,-1,-1,-1,-1,-1,-1,-1,-1,-1,-1,-1,-1,-1,-1],"split_conditions":[1.8516802E0,4.51443E-2,2.96215E0,1.20418236E-1,2.21553E-1,6.964835E-2,1.4292552E0,5E-1,-2.9329157E-1,1E0,6.024133E-1,9.879698E-1,5E-1,-2.8334979E-2,-2.3154742E-1,3.0163276E-1,-3.1820944E-1,-5.174423E-1,5E-1,3.0163276E-1,1.9519506E0,5E-1,7.487758E-1,5E-1,-3.2422002E-2,-4.1635254E-1,6E-1,5E-1,5E-1,-6.79667E-1,5E-1,2.3483971E-2,-3.369585E-1,5.263944E-1,6.1124717E-3,6.025704E-1,1E0,6E-1,4.3266386E-1,1.7560984E-3,2.611894E-1,-9.28736E-2,7.9761124E-1,1.0897704E0,5.1496613E-1,9.6230394E-1,8.7861985E-1,-4.1635254E-1,5.0933516E-1,5E-1,-1.3059248E-2,6E-1,4.0240094E-2,2.2874887E0,-5.6607E-2,4.9116108E-1,4.113712E0,-1.633073E-1,4.113712E0,-4.9569002E-1,4.113712E0,3.7629602E0,1.4931746E-2,4.8046898E-2,-8.630517E-3,-2.5212577E-2,-1.445087E-2,-2.4118379E-2,-1.0926012E-2,4.6348018E-3,-7.7146553E-3,-3.51719E-2,-4.324328E-2,-3.264988E-2,-2.280688E-2,-2.3164423E-2,-2.9700553E-2,-1.3138279E-2,-2.3280408E-2,7E-2,2.3893587E-2,-2.7404886E-3,6.847056E-3,2.3543661E-2,1.0419992E-2,2.9000089E-2,5.4804195E-2,-1.9729486E-2,-1.1861976E-2,-3.298562E-3,-1.2465541E-2,4.2329202E-3,1.994375E-2,-1.160642E-2,2.5848285E-4,-2.1462463E-2,-6.462322E-3,-1.1725126E-2,6.9037653E-3,3.6188911E-3,2.086999E-2,-1.6337411E-2,-1.3439605E-4,1.1575967E-2,3.1781156E-2,1.0794333E-2,-6.808785E-3,1.9623322E-2,3.739732E-2,4.831046E-2,2.4144894E-2,-1.5744494E-2,9.799792E-3,2.3465235E-2,4.4427644E-2,2.3546685E-2,7E-2,5.328917E-2,7E-2,1.7337661E-2,6.512947E-2,3.1648725E-3,5.5425506E-2,3.811374E-2,6.9062084E-2,7E-2,2.939689E-3],"split_indices":[3,0,3,1,1,0,2,5,0,5,0,2,5,0,0,3,0,0,5,3,2,5,1,5,1,1,4,5,5,1,5,1,0,2,1,1,5,4,1,1,0,1,0,3,1,0,0,0,2,5,0,4,1,3,1,2,3,1,3,0,3,3,1,0,0,0,0,0,0,0,0,0,0,0,0,0,0,0,0,0,0,0,0,0,0,0,0,0,0,0,0,0,0,0,0,0,0,0,0,0,0,0,0,0,0,0,0,0,0,0,0,0,0,0,0,0,0,0,0,0,0,0,0,0,0,0,0],"split_type":[0,0,0,0,0,0,0,0,0,0,0,0,0,0,0,0,0,0,0,0,0,0,0,0,0,0,0,0,0,0,0,0,0,0,0,0,0,0,0,0,0,0,0,0,0,0,0,0,0,0,0,0,0,0,0,0,0,0,0,0,0,0,0,0,0,0,0,0,0,0,0,0,0,0,0,0,0,0,0,0,0,0,0,0,0,0,0,0,0,0,0,0,0,0,0,0,0,0,0,0,0,0,0,0,0,0,0,0,0,0,0,0,0,0,0,0,0,0,0,0,0,0,0,0,0,0,0],"sum_hessian":[2.2824719E5,1.8904631E5,3.9200875E4,6.841801E4,1.20628305E5,2.9725287E4,9.475589E3,4.0302438E4,2.8115568E4,5.3135938E4,6.749237E4,1.6131382E4,1.3593904E4,5.9620933E3,3.513496E3,1.3249912E4,2.7052525E4,6.5122695E3,2.1603297E4,3.1145129E4,2.1990807E4,4.8654496E4,1.8837871E4,7.354127E3,8.777255E3,4.7110127E3,8.882892E3,4.302536E3,1.6595573E3,2.378518E2,3.2756443E3,1.3989365E2,1.3110019E4,6.2067295E3,2.0845795E4,2.4960198E3,4.0162498E3,8.422339E3,1.3180959E4,1.635521E2,3.0981576E4,1.8695525E4,3.2952825E3,1.7828182E4,3.0826314E4,1.3894189E4,4.943682E3,2.4023682E3,4.951759E3,7.9903853E3,7.8686914E2,1.3475992E3,3.3634136E3,4.125137E3,4.7577544E3,8.048978E2,3.4976382E3,5.390834E2,1.1204739E3,9.063541E1,1.472164E2,8.5242206E2,2.4232222E3,1.0799762E2,3.1896023E1,3.339007E3,9.771012E3,1.5514441E3,4.655285E3,1.5421697E4,5.4240986E3,1.9904679E3,5.0555194E2,2.518286E3,1.4979639E3,3.9564707E3,4.465868E3,9.578606E3,3.602352E3,1.0541499E2,5.8137093E1,1.4689504E4,1.6292073E4,5.979008E3,1.2716518E4,2.8219539E3,4.733286E2,1.208925E4,5.738932E3,1.968947E4,1.1136843E4,1.1513807E4,2.3803826E3,2.9804287E3,1.9632534E3,8.696767E2,1.5326915E3,9.704303E2,3.9813286E3,2.212877E3,5.7775083E3,5.586948E2,2.2817429E2,3.4602103E2,1.00157825E3,2.7821545E3,5.8125916E2,2.7103833E3,1.4147539E3,3.6700562E3,1.0876982E3,1.3904993E2,6.658479E2,2.611689E3,8.859492E2,5.1193695E2,2.7146452E1,8.979968E2,2.2247702E2,2.0637924E1,6.999748E1,1.210985E2,2.61179E1,4.8491266E2,3.6750937E2,2.3966611E3,2.6560982E1],"tree_param":{"num_deleted":"0","num_feature":"6","num_nodes":"127","size_leaf_vector":"1"}},{"base_weights":[8.368679E-4,-4.6426143E-2,2.1659355E-1,-1.395828E-1,-3.522726E-3,1.429805E-1,4.161364E-1,-7.676637E-2,-2.3274477E-1,8.22438E-2,-6.1133474E-2,3.9806385E-2,2.3301362E-1,2.98021E-1,6.339728E-1,-1.7017919E-1,-3.1335205E-2,-3.143515E-1,-2.0333716E-1,-1.5681174E-2,1.295912E-1,-1.2092689E-1,-3.066383E-3,-7.3479205E-2,8.679624E-2,1.0929377E-1,2.8772098E-1,2.2726299E-1,4.6443534E-1,4.959792E-1,7E-1,-2.4597129E-1,-1.406996E-1,-1.8527848E-1,-4.3561407E-3,-3.6342415E-1,-2.8391618E-1,-2.4207313E-1,-1.3809122E-1,-7.5591944E-2,4.2296812E-2,1.0782388E-1,2.746077E-1,-1.5918852E-1,-5.508287E-2,-4.3749135E-2,6.564179E-2,5.703037E-2,-1.1128086E-1,1.9831203E-1,2.5865054E-2,8.084434E-2,2.7409157E-1,2.16448E-1,3.8016376E-1,4.5910846E-2,2.6881042E-1,2.3882286E-1,5.6910235E-1,3.2065102E-1,5.50729E-1,2.7300036E-1,7E-1,1.963361E-2,-2.5159651E-2,1.9492391E-2,-1.4665549E-2,-1.0120957E-2,-2.2082912E-2,3.7436124E-2,-1.2259315E-3,-3.4653585E-2,-4.296036E-2,-3.2118287E-2,-2.2167685E-2,-2.1823129E-2,-3.0282108E-2,-1.0471575E-2,-2.1829456E-2,3.2487925E-2,-8.368234E-3,2.3971307E-3,2.2193605E-2,1.526213E-2,4.6057147E-3,4.496634E-2,2.3959918E-2,-1.271554E-2,-2.1216867E-2,-2.2611883E-3,-1.3730817E-2,-6.8530114E-3,6.0788114E-3,9.790882E-3,-3.9024272E-3,-9.655556E-3,1.2615845E-2,-1.917224E-2,-7.031028E-3,6.822511E-3,2.312199E-2,-2.4570685E-3,1.1689357E-2,1.1092178E-2,-8.665439E-3,3.246711E-2,6.456971E-3,1.8348822E-2,3.2595526E-2,3.2481365E-2,5.4286666E-2,-1.6583383E-2,8.402565E-3,1.3056909E-2,3.2190125E-2,2.1038143E-2,7E-2,4.7147468E-2,7E-2,1.6878253E-2,4.0818796E-2,4.547439E-2,7E-2,5.9275456E-2,1.4223008E-2,5.973799E-2,7E-2],"categories":[],"categories_nodes":[],"categories_segments":[],"categories_sizes":[],"default_left":[0,0,0,0,0,0,0,0,0,0,0,0,0,0,0,0,0,0,0,0,0,0,0,0,0,0,0,0,0,0,0,0,0,0,0,0,0,0,0,0,0,0,0,0,0,0,0,0,0,0,0,0,0,0,0,0,0,0,0,0,0,0,0,0,0,0,0,0,0,0,0,0,0,0,0,0,0,0,0,0,0,0,0,0,0,0,0,0,0,0,0,0,0,0,0,0,0,0,0,0,0,0,0,0,0,0,0,0,0,0,0,0,0,0,0,0,0,0,0,0,0,0,0,0,0,0,0],"id":7,"left_children":[1,3,5,7,9,11,13,15,17,19,21,23,25,27,29,31,33,35,37,39,41,43,45,47,49,51,53,55,57,59,61,63,65,67,69,71,73,75,77,79,81,83,85,87,89,91,93,95,97,99,101,103,105,107,109,111,113,115,117,119,121,123,125,-1,-1,-1,-1,-1,-1,-1,-1,-1,-1,-1,-1,-1,-1,-1,-1,-1,-1,-1,-1,-1,-1,-1,-1,-1,-1,-1,-1,-1,-1,-1,-1,-1,-1,-1,-1,-1,-1,-1,-1,-1,-1,-1,-1,-1,-1,-1,-1,-1,-1,-1,-1,-1,-1,-1,-1,-1,-1,-1,-1,-1,-1,-1,-1],"loss_changes":[2.327646E3,7.483642E2,6.0243835E2,3.4550757E2,6.334594E2,2.7833685E2,2.842085E2,1.4966003E2,5.6999146E1,2.3884375E2,2.6626703E2,7.434378E1,1.0827124E2,8.430994E1,8.3072266E1,2.5747894E1,9.854777E1,9.301331E0,4.4149414E1,5.832419E1,1.09581726E2,9.517804E1,1.08758064E2,2.0207506E1,6.70655E1,2.2987309E1,7.301593E1,3.790329E1,5.0347046E1,2.3E1,1.787024E1,8.086044E0,1.6640198E1,1.0552574E1,6.043702E1,2.5411377E0,8.953796E0,1.5819336E1,1.7415947E1,2.6782352E1,2.8086454E1,8.353934E1,2.7661957E1,4.052765E1,3.7076435E1,6.331216E1,4.8873215E1,9.783176E0,1.0451813E1,1.4914093E1,2.9313917E1,2.110168E1,7.6313667E0,2.2559479E1,4.330841E1,7.5936103E0,3.0004913E1,9.168537E0,3.7321564E1,7.6010017E0,2.705194E1,4.1263585E0,3.480713E0,0E0,0E0,0E0,0E0,0E0,0E0,0E0,0E0,0E0,0E0,0E0,0E0,0E0,0E0,0E0,0E0,0E0,0E0,0E0,0E0,0E0,0E0,0E0,0E0,0E0,0E0,0E0,0E0,0E0,0E0,0E0,0E0,0E0,0E0,0E0,0E0,0E0,0E0,0E0,0E0,0E0,0E0,0E0,0E0,0E0,0E0,0E0,0E0,0E0,0E0,0E0,0E0,0E0,0E0,0E0,0E0,0E0,0E0,0E0,0E0,0E0,0E0,0E0,0E0],"parents":[2147483647,0,0,1,1,2,2,3,3,4,4,5,5,6,6,7,7,8,8,9,9,10,10,11,11,12,12,13,13,14,14,15,15,16,16,17,17,18,18,19,19,20,20,21,21,22,22,23,23,24,24,25,25,26,26,27,27,28,28,29,29,30,30,31,31,32,32,33,33,34,34,35,35,36,36,37,37,38,38,39,39,40,40,41,41,42,42,43,43,44,44,45,45,46,46,47,47,48,48,49,49,50,50,51,51,52,52,53,53,54,54,55,55,56,56,57,57,58,58,59,59,60,60,61,61,62,62],"right_children":[2,4,6,8,10,12,14,16,18,20,22,24,26,28,30,32,34,36,38,40,42,44,46,48,50,52,54,56,58,60,62,64,66,68,70,72,74,76,78,80,82,84,86,88,90,92,94,96,98,100,102,104,106,108,110,112,114,116,118,120,122,124,126,-1,-1,-1,-1,-1,-1,-1,-1,-1,-1,-1,-1,-1,-1,-1,-1,-1,-1,-1,-1,-1,-1,-1,-1,-1,-1,-1,-1,-1,-1,-1,-1,-1,-1,-1,-1,-1,-1,-1,-1,-1,-1,-1,-1,-1,-1,-1,-1,-1,-1,-1,-1,-1,-1,-1,-1,-1,-1,-1,-1,-1,-1,-1,-1],"split_conditions":[1.8371172E0,-3.8885802E-4,2.856036E0,1.20418236E-1,1.7658822E-1,1.2188773E0,1.4804977E0,5E-1,-2.9329157E-1,5E-1,3.9446408E-1,-3.1820944E-1,5E-1,-2.8334979E-2,3.7629602E0,-3.369585E-1,-4.4413105E-1,-5.174423E-1,1E0,2.489766E-1,5.580855E-1,1E0,1E0,-6.79667E-1,-3.5684633E-1,6.1109626E-1,6E-1,5E-1,5E-1,5E-1,-2.097491E-1,-7.633648E-1,5.567069E-1,-3.1003538E-1,3.0163276E-1,6.025704E-1,1E0,4.3266386E-1,4.3746775E-1,5.0264454E-1,7.349059E-1,6.1124717E-3,-1.9035177E-1,4.5849082E-1,5.1496613E-1,8.381689E-1,6.7832005E-1,5E-1,5E-1,7.5521725E-1,8.2165234E-2,-4.4614606E-2,4.0240094E-2,1.9519506E0,1.9072359E0,4.9116108E-1,-4.75095E-1,-1.5496649E-1,4.113712E0,6E-1,2.2885291E-1,-3.5684633E-1,5E-1,1.963361E-2,-2.5159651E-2,1.9492391E-2,-1.4665549E-2,-1.0120957E-2,-2.2082912E-2,3.7436124E-2,-1.2259315E-3,-3.4653585E-2,-4.296036E-2,-3.2118287E-2,-2.2167685E-2,-2.1823129E-2,-3.0282108E-2,-1.0471575E-2,-2.1829456E-2,3.2487925E-2,-8.368234E-3,2.3971307E-3,2.2193605E-2,1.526213E-2,4.6057147E-3,4.496634E-2,2.3959918E-2,-1.271554E-2,-2.1216867E-2,-2.2611883E-3,-1.3730817E-2,-6.8530114E-3,6.0788114E-3,9.790882E-3,-3.9024272E-3,-9.655556E-3,1.2615845E-2,-1.917224E-2,-7.031028E-3,6.822511E-3,2.312199E-2,-2.4570685E-3,1.1689357E-2,1.1092178E-2,-8.665439E-3,3.246711E-2,6.456971E-3,1.8348822E-2,3.2595526E-2,3.2481365E-2,5.4286666E-2,-1.6583383E-2,8.402565E-3,1.3056909E-2,3.2190125E-2,2.1038143E-2,7E-2,4.7147468E-2,7E-2,1.6878253E-2,4.0818796E-2,4.547439E-2,7E-2,5.9275456E-2,1.4223008E-2,5.973799E-2,7E-2],"split_indices":[3,0,3,1,1,2,2,5,0,5,0,0,5,0,3,0,0,0,5,0,0,5,5,1,1,0,4,5,5,5,0,1,3,1,3,1,5,1,1,3,0,1,1,1,1,0,1,5,5,2,0,1,1,2,2,2,0,1,3,4,0,0,5,0,0,0,0,0,0,0,0,0,0,0,0,0,0,0,0,0,0,0,0,0,0,0,0,0,0,0,0,0,0,0,0,0,0,0,0,0,0,0,0,0,0,0,0,0,0,0,0,0,0,0,0,0,0,0,0,0,0,0,0,0,0,0,0],"split_type":[0,0,0,0,0,0,0,0,0,0,0,0,0,0,0,0,0,0,0,0,0,0,0,0,0,0,0,0,0,0,0,0,0,0,0,0,0,0,0,0,0,0,0,0,0,0,0,0,0,0,0,0,0,0,0,0,0,0,0,0,0,0,0,0,0,0,0,0,0,0,0,0,0,0,0,0,0,0,0,0,0,0,0,0,0,0,0,0,0,0,0,0,0,0,0,0,0,0,0,0,0,0,0,0,0,0,0,0,0,0,0,0,0,0,0,0,0,0,0,0,0,0,0,0,0,0,0],"sum_hessian":[2.2825881E5,1.8724277E5,4.1016055E4,5.9041992E4,1.2820077E5,2.9963855E4,1.1052201E4,3.5265387E4,2.3776607E4,5.1512473E4,7.66883E4,1.3963603E4,1.6000253E4,7.1679546E3,3.8842458E3,1.1538296E4,2.372709E4,6.2958374E3,1.748077E4,1.6789242E4,3.472323E4,3.7781984E4,3.8906316E4,4.0937095E3,9.869893E3,4.9067393E3,1.1093513E4,5.031127E3,2.1368276E3,2.4134492E3,1.4707968E3,3.229053E3,8.309243E3,3.5372988E3,2.0189791E4,2.4058323E3,3.890005E3,1.0967027E4,6.513742E3,8.256842E3,8.532399E3,3.0192943E4,4.5302866E3,2.3895188E4,1.3886798E4,2.443719E4,1.4469125E4,9.193074E2,3.174402E3,3.4865605E3,6.383332E3,4.1856514E3,7.210881E2,6.2658833E3,4.82763E3,9.381709E2,4.092956E3,6.7821E2,1.4586177E3,5.759403E2,1.8375089E3,9.96991E1,1.3710977E3,4.012528E1,3.1889277E3,1.4432935E2,8.1649136E3,1.0524197E3,2.4848792E3,4.1176538E2,1.9778027E4,1.9216761E3,4.8415616E2,2.4305312E3,1.4594738E3,7.87924E3,3.0877874E3,4.601288E3,1.912454E3,1.627278E2,8.094114E3,7.743588E3,7.888117E2,1.7499586E4,1.2693356E4,7.530265E2,3.7772603E3,1.4893562E4,9.001626E3,9.956302E3,3.9304954E3,1.9754621E4,4.6825684E3,1.1059659E4,3.4094663E3,2.8522015E2,6.340872E2,1.0699619E3,2.1044402E3,7.045404E2,2.7820203E3,4.1079756E3,2.2753564E3,3.5487473E3,6.3690405E2,5.8042206E2,1.4066599E2,4.8183267E3,1.4475566E3,3.6044302E3,1.2231996E3,1.4260204E2,7.9556885E2,1.136673E3,2.9562832E3,6.4188257E2,3.6327457E1,1.2019177E3,2.5669992E2,2.116592E2,3.642811E2,1.1379292E3,6.995797E2,2.7913462E1,7.178564E1,3.7606555E2,9.9503217E2],"tree_param":{"num_deleted":"0","num_feature":"6","num_nodes":"127","size_leaf_vector":"1"}},{"base_weights":[8.0419495E-4,-4.738369E-2,1.8952419E-1,-1.4912808E-1,-1.0500183E-2,1.178871E-1,3.5986394E-1,-9.1339156E-2,-2.4080467E-1,7.030366E-2,-6.15653E-2,3.7385408E-2,2.1472222E-1,2.5589994E-1,5.488815E-1,-1.3645543E-1,-6.418972E-3,-3.1077683E-1,-2.0883954E-1,-2.5821203E-2,1.155505E-1,-1.2635487E-1,-7.098647E-3,-6.488746E-2,8.223903E-2,1.517679E-1,2.9922736E-1,8.875289E-2,3.0019552E-1,4.4130912E-1,7E-1,-1.8049613E-1,-6.501744E-2,-1.6243558E-1,1.6723093E-2,-3.5863197E-1,-2.805728E-1,-2.4551785E-1,-1.4917423E-1,-9.990662E-2,2.4633015E-2,7.725279E-2,1.8575007E-1,-1.6643994E-1,-5.916064E-2,-7.821823E-2,2.892973E-2,-1.5137844E-1,-2.8572062E-2,-2.3335524E-2,1.2622507E-1,3.0016947E-1,1.1856417E-1,2.0328839E-1,3.6203852E-1,-7.678746E-2,1.22206375E-1,1.3043223E-1,3.540331E-1,2.5645313E-1,4.977856E-1,2.526662E-1,7E-1,-2.4996059E-2,-1.5464547E-2,-3.6182515E-3,-1.7235179E-2,-3.1884026E-2,-1.2403337E-2,3.9620575E-2,8.019847E-4,-3.4087814E-2,-4.2666968E-2,-3.160901E-2,-2.210341E-2,-2.2687053E-2,-3.2607026E-2,-9.5646195E-3,-1.9994278E-2,2.4925066E-2,-1.085149E-2,9.959558E-4,2.1536117E-2,1.2090071E-2,1.0044974E-3,1.6244318E-2,3.4421004E-2,-1.3989368E-2,-2.1827802E-2,-3.1508596E-3,-1.4289274E-2,-1.0317615E-2,1.84415E-3,8.055857E-3,-2.6235075E-3,-2.7655317E-2,-1.1961357E-2,-8.290109E-3,4.460966E-3,7.0676445E-3,-6.1981846E-3,1.5202439E-2,-6.1903642E-3,2.032318E-2,3.6351364E-2,8.124018E-3,2.2576237E-2,4.5082502E-2,1.7940326E-2,3.3184864E-2,7E-2,4.1014263E-3,-1.998887E-2,-1.7209766E-2,1.3850798E-2,4.573137E-3,1.9425727E-2,3.0634169E-2,5.7385977E-2,1.6166477E-2,3.726047E-2,4.1375957E-2,6.1944183E-2,5.3210754E-2,1.3333075E-2,5.341009E-2,7E-2],"categories":[],"categories_nodes":[],"categories_segments":[],"categories_sizes":[],"default_left":[0,0,0,0,0,0,0,0,0,0,0,0,0,0,0,0,0,0,0,0,0,0,0,0,0,0,0,0,0,0,0,0,0,0,0,0,0,0,0,0,0,0,0,0,0,0,0,0,0,0,0,0,0,0,0,0,0,0,0,0,0,0,0,0,0,0,0,0,0,0,0,0,0,0,0,0,0,0,0,0,0,0,0,0,0,0,0,0,0,0,0,0,0,0,0,0,0,0,0,0,0,0,0,0,0,0,0,0,0,0,0,0,0,0,0,0,0,0,0,0,0,0,0,0,0,0,0],"id":8,"left_children":[1,3,5,7,9,11,13,15,17,19,21,23,25,27,29,31,33,35,37,39,41,43,45,47,49,51,53,55,57,59,61,63,65,67,69,71,73,75,77,79,81,83,85,87,89,91,93,95,97,99,101,103,105,107,109,111,113,115,117,119,121,123,125,-1,-1,-1,-1,-1,-1,-1,-1,-1,-1,-1,-1,-1,-1,-1,-1,-1,-1,-1,-1,-1,-1,-1,-1,-1,-1,-1,-1,-1,-1,-1,-1,-1,-1,-1,-1,-1,-1,-1,-1,-1,-1,-1,-1,-1,-1,-1,-1,-1,-1,-1,-1,-1,-1,-1,-1,-1,-1,-1,-1,-1,-1,-1,-1],"loss_changes":[2.075944E3,6.824015E2,5.6655164E2,2.5629797E2,5.5070807E2,2.5480301E2,2.6997656E2,1.13700165E2,4.177307E1,2.2479005E2,2.8859464E2,8.188981E1,7.8892944E1,6.5645386E1,1.09510864E2,6.09628E1,3.7182384E1,8.374695E0,2.8069153E1,6.1836098E1,9.446356E1,1.0059485E2,1.1384946E2,1.7090181E1,5.7626892E1,4.1874603E1,3.8094055E1,1.0307681E1,6.403479E1,3.4407166E1,2.020752E1,2.1489471E1,2.2874323E1,7.9501953E0,2.9616661E1,2.5907593E0,7.5414124E0,1.1870575E1,1.3274788E1,2.017054E1,2.7540293E1,6.670322E1,4.575363E1,3.2162292E1,3.231293E1,3.6044075E1,8.399816E1,6.365238E0,1.52484045E1,1.3266659E1,4.2524338E1,9.470963E0,2.779692E1,1.4749329E1,4.026471E1,4.550628E0,7.4475155E0,9.125914E0,5.5625427E1,8.485409E0,2.5634277E1,3.3782258E0,1.0525024E1,0E0,0E0,0E0,0E0,0E0,0E0,0E0,0E0,0E0,0E0,0E0,0E0,0E0,0E0,0E0,0E0,0E0,0E0,0E0,0E0,0E0,0E0,0E0,0E0,0E0,0E0,0E0,0E0,0E0,0E0,0E0,0E0,0E0,0E0,0E0,0E0,0E0,0E0,0E0,0E0,0E0,0E0,0E0,0E0,0E0,0E0,0E0,0E0,0E0,0E0,0E0,0E0,0E0,0E0,0E0,0E0,0E0,0E0,0E0,0E0,0E0,0E0,0E0,0E0],"parents":[2147483647,0,0,1,1,2,2,3,3,4,4,5,5,6,6,7,7,8,8,9,9,10,10,11,11,12,12,13,13,14,14,15,15,16,16,17,17,18,18,19,19,20,20,21,21,22,22,23,23,24,24,25,25,26,26,27,27,28,28,29,29,30,30,31,31,32,32,33,33,34,34,35,35,36,36,37,37,38,38,39,39,40,40,41,41,42,42,43,43,44,44,45,45,46,46,47,47,48,48,49,49,50,50,51,51,52,52,53,53,54,54,55,55,56,56,57,57,58,58,59,59,60,60,61,61,62,62],"right_children":[2,4,6,8,10,12,14,16,18,20,22,24,26,28,30,32,34,36,38,40,42,44,46,48,50,52,54,56,58,60,62,64,66,68,70,72,74,76,78,80,82,84,86,88,90,92,94,96,98,100,102,104,106,108,110,112,114,116,118,120,122,124,126,-1,-1,-1,-1,-1,-1,-1,-1,-1,-1,-1,-1,-1,-1,-1,-1,-1,-1,-1,-1,-1,-1,-1,-1,-1,-1,-1,-1,-1,-1,-1,-1,-1,-1,-1,-1,-1,-1,-1,-1,-1,-1,-1,-1,-1,-1,-1,-1,-1,-1,-1,-1,-1,-1,-1,-1,-1,-1,-1,-1,-1,-1,-1,-1],"split_conditions":[1.7721845E0,-4.8654627E-2,2.6912796E0,1.3362364E-1,1.5765373E-1,9.3578845E-2,1.4804977E0,1E0,-2.9329157E-1,5E-1,3.5164088E-1,8.3786064E-1,1E0,-4.4413105E-1,3.7629602E0,1.0484267E0,-4.75095E-1,-5.174423E-1,1E0,1.7267449E-1,3.260913E-1,1E0,5E-1,5.0933516E-1,5E-1,-4.2986563E-1,6E-1,5E-1,5E-1,5E-1,-2.097491E-1,-4.2986563E-1,2.3483971E-2,3.7401044E-1,5.0264454E-1,6.025704E-1,1E0,5.1496613E-1,3.1770894E-1,3.7040216E-1,7.349059E-1,1.7560984E-3,7.2226334E-1,4.6352422E-1,5.211022E-1,7.8056353E-1,4.9197018E-1,-7.158453E-1,-2.373616E-1,-4.0265283E-1,-3.2422002E-2,1.2946894E0,1.8937322E0,-5.38607E-1,2.1734903E0,-6.79667E-1,3.4380767E-1,-7.2838075E-2,4.113712E0,3.260913E-1,2.2885291E-1,-3.5684633E-1,5E-1,-2.4996059E-2,-1.5464547E-2,-3.6182515E-3,-1.7235179E-2,-3.1884026E-2,-1.2403337E-2,3.9620575E-2,8.019847E-4,-3.4087814E-2,-4.2666968E-2,-3.160901E-2,-2.210341E-2,-2.2687053E-2,-3.2607026E-2,-9.5646195E-3,-1.9994278E-2,2.4925066E-2,-1.085149E-2,9.959558E-4,2.1536117E-2,1.2090071E-2,1.0044974E-3,1.6244318E-2,3.4421004E-2,-1.3989368E-2,-2.1827802E-2,-3.1508596E-3,-1.4289274E-2,-1.0317615E-2,1.84415E-3,8.055857E-3,-2.6235075E-3,-2.7655317E-2,-1.1961357E-2,-8.290109E-3,4.460966E-3,7.0676445E-3,-6.1981846E-3,1.5202439E-2,-6.1903642E-3,2.032318E-2,3.6351364E-2,8.124018E-3,2.2576237E-2,4.5082502E-2,1.7940326E-2,3.3184864E-2,7E-2,4.1014263E-3,-1.998887E-2,-1.7209766E-2,1.3850798E-2,4.573137E-3,1.9425727E-2,3.0634169E-2,5.7385977E-2,1.6166477E-2,3.726047E-2,4.1375957E-2,6.1944183E-2,5.3210754E-2,1.3333075E-2,5.341009E-2,7E-2],"split_indices":[3,0,3,1,1,0,2,5,0,5,0,2,5,0,3,2,0,0,5,0,0,5,5,2,5,1,4,5,5,5,0,0,1,2,3,1,5,1,1,3,0,1,0,1,1,0,1,0,0,1,1,2,2,1,2,1,2,0,3,0,0,0,5,0,0,0,0,0,0,0,0,0,0,0,0,0,0,0,0,0,0,0,0,0,0,0,0,0,0,0,0,0,0,0,0,0,0,0,0,0,0,0,0,0,0,0,0,0,0,0,0,0,0,0,0,0,0,0,0,0,0,0,0,0,0,0,0],"split_type":[0,0,0,0,0,0,0,0,0,0,0,0,0,0,0,0,0,0,0,0,0,0,0,0,0,0,0,0,0,0,0,0,0,0,0,0,0,0,0,0,0,0,0,0,0,0,0,0,0,0,0,0,0,0,0,0,0,0,0,0,0,0,0,0,0,0,0,0,0,0,0,0,0,0,0,0,0,0,0,0,0,0,0,0,0,0,0,0,0,0,0,0,0,0,0,0,0,0,0,0,0,0,0,0,0,0,0,0,0,0,0,0,0,0,0,0,0,0,0,0,0,0,0,0,0,0,0],"sum_hessian":[2.2827381E5,1.8184272E5,4.643109E4,4.8380484E4,1.3346223E5,3.2686385E4,1.3744702E4,2.9676016E4,1.8704469E4,5.1681953E4,8.178029E4,1.7849223E4,1.4837162E4,8.868937E3,4.8757656E3,1.9379498E4,1.0296518E4,5.8625464E3,1.2841922E4,1.6541248E4,3.5140707E4,3.7350055E4,4.4430234E4,5.441456E3,1.2407768E4,8.50439E3,6.332773E3,1.8586028E3,7.010334E3,3.306938E3,1.5688276E3,1.1987694E4,7.3918037E3,1.3292318E3,8.967286E3,2.2642336E3,3.5983127E3,7.951032E3,4.8908896E3,6.700889E3,9.840358E3,2.2737986E4,1.240272E4,2.3393229E4,1.3956824E4,1.4939221E4,2.9491014E4,1.6081702E3,3.833286E3,3.649285E3,8.758482E3,1.5534263E3,6.9509634E3,2.507305E3,3.825468E3,3.1223785E2,1.546365E3,1.68874E3,5.321594E3,7.7518427E2,2.5317537E3,1.0243201E2,1.4663958E3,3.248863E3,8.738831E3,5.8275845E3,1.5642194E3,2.605914E2,1.0686404E3,2.0005106E2,8.767235E3,1.8004365E3,4.637971E2,2.2511184E3,1.3471943E3,6.4595156E3,1.4915168E3,2.3821462E3,2.5087432E3,1.605591E2,6.54033E3,9.138361E3,7.019975E2,1.3784731E4,8.953255E3,1.0814157E4,1.5885624E3,1.5473142E4,7.920088E3,1.049296E4,3.4638638E3,1.1873396E4,3.065824E3,1.5233497E4,1.4257517E4,3.2393698E2,1.2842332E3,2.1999458E3,1.63334E3,1.0628767E3,2.5864082E3,7.702395E3,1.0560875E3,6.155848E2,9.378415E2,5.157126E3,1.7938373E3,2.1906999E2,2.2882349E3,3.5243223E3,3.0114563E2,1.5989407E2,1.523438E2,8.0656685E1,1.4657083E3,7.2642847E2,9.6231146E2,4.374861E3,9.4673346E2,4.2816302E2,3.4702124E2,1.5000757E3,1.031678E3,2.9618067E1,7.2813934E1,3.9921548E2,1.0671802E3],"tree_param":{"num_deleted":"0","num_feature":"6","num_nodes":"127","size_leaf_vector":"1"}},{"base_weights":[7.4066594E-4,-4.5289524E-2,1.768626E-1,-1.0680063E-1,1.2170916E-2,1.1818364E-1,3.515292E-1,-1.5133113E-1,-3.3653706E-2,1.086287E-1,-2.727323E-2,3.2148305E-2,1.9737801E-1,2.335214E-1,4.9072504E-1,-2.1415661E-1,-1.12866946E-1,1.1699296E-2,-1.1826463E-1,6.9018656E-1,1.0030789E-1,-9.277192E-2,1.8203713E-2,-7.5541526E-2,7.214028E-2,9.0580806E-2,2.4454316E-1,1.9856367E-1,4.5420456E-1,4.167214E-1,7E-1,-1.6314419E-1,-2.912198E-1,-4.3718662E-2,-1.6611864E-1,-7.925641E-2,6.414458E-2,-2.1328619E-1,-6.812716E-2,7E-1,2.495916E-1,4.467989E-2,1.8092746E-1,-1.5886E-1,-5.763886E-2,6.1681822E-2,-4.052986E-2,4.605052E-2,-1.0843439E-1,1.845254E-1,2.9986165E-2,5.951133E-2,2.1270403E-1,4.2635533E-1,2.1975002E-1,5.0197437E-2,2.3037384E-1,2.3335098E-1,5.239803E-1,2.7463064E-1,4.7477272E-1,4.7062683E-1,7E-1,2.8842727E-2,-1.6845016E-2,-3.777192E-2,-2.7183672E-2,-7.4658394E-3,1.671011E-3,-2.0251686E-2,-1.1069344E-2,-2.1156754E-2,-5.0610574E-3,1.1505648E-2,2.6544186E-3,-3.192725E-2,-1.8431947E-2,-1.0528548E-2,-2.8216008E-3,2.4504986E-2,7E-2,7E-2,-3.4519793E-3,-2.0071259E-3,8.541575E-3,1.6283154E-2,4.074923E-2,-1.9604193E-2,-1.0960687E-2,-1.5847286E-3,-1.057612E-2,1.726804E-3,1.2371236E-2,-8.909868E-3,3.0783028E-3,-9.795315E-3,1.0788157E-2,-1.7732285E-2,-7.3768585E-3,1.2562376E-2,2.3940451E-2,-1.928046E-3,1.0764559E-2,8.492859E-3,-8.767725E-3,2.7314773E-2,2.3131466E-3,1.00672385E-2,4.5613077E-2,1.8222371E-2,3.300974E-2,-1.6028931E-2,8.54115E-3,1.11058345E-2,2.7238175E-2,1.171221E-2,5.1664647E-2,3.2657877E-2,5.9649684E-2,2.5208285E-2,7E-2,4.4386797E-2,7E-2,9.070158E-3,5.598045E-2,4.3440375E-2,7E-2],"categories":[],"categories_nodes":[],"categories_segments":[],"categories_sizes":[],"default_left":[0,0,0,0,0,0,0,0,0,0,0,0,0,0,0,0,0,0,0,0,0,0,0,0,0,0,0,0,0,0,0,0,0,0,0,0,0,0,0,0,0,0,0,0,0,0,0,0,0,0,0,0,0,0,0,0,0,0,0,0,0,0,0,0,0,0,0,0,0,0,0,0,0,0,0,0,0,0,0,0,0,0,0,0,0,0,0,0,0,0,0,0,0,0,0,0,0,0,0,0,0,0,0,0,0,0,0,0,0,0,0,0,0,0,0,0,0,0,0,0,0,0,0,0,0,0,0],"id":9,"left_children":[1,3,5,7,9,11,13,15,17,19,21,23,25,27,29,31,33,35,37,39,41,43,45,47,49,51,53,55,57,59,61,63,65,67,69,71,73,75,77,79,81,83,85,87,89,91,93,95,97,99,101,103,105,107,109,111,113,115,117,119,121,123,125,-1,-1,-1,-1,-1,-1,-1,-1,-1,-1,-1,-1,-1,-1,-1,-1,-1,-1,-1,-1,-1,-1,-1,-1,-1,-1,-1,-1,-1,-1,-1,-1,-1,-1,-1,-1,-1,-1,-1,-1,-1,-1,-1,-1,-1,-1,-1,-1,-1,-1,-1,-1,-1,-1,-1,-1,-1,-1,-1,-1,-1,-1,-1,-1],"loss_changes":[1.8508512E3,6.397374E2,4.8480017E2,2.847411E2,3.5605444E2,2.4126602E2,1.9527844E2,1.3128577E2,1.2694719E2,1.31366E2,1.9785062E2,7.310601E1,9.2853516E1,4.9587616E1,1.4066956E2,8.106671E1,1.2410602E2,1.027462E2,5.498477E1,1.6736328E1,1.2009006E2,6.3190582E1,1.0011334E2,1.8390345E1,5.8633606E1,2.1425209E1,5.755658E1,2.6232376E1,1.3435501E1,3.894452E1,8.838623E0,2.9801056E1,1.3674194E1,2.7420517E1,3.839093E1,2.984618E1,2.6149536E1,1.2181335E1,1.1206497E1,1.6672806E1,1.2017246E1,4.180156E1,4.475934E1,1.7279068E1,3.57422E1,6.206205E1,5.776385E1,8.731684E0,8.627987E0,1.0883064E1,3.4446068E1,1.6863125E1,1.3119457E1,1.482666E1,4.655255E1,7.299903E0,2.2918854E1,6.9538746E0,9.364166E0,1.8313965E1,2.572638E1,5.9566383E0,3.053589E-1,0E0,0E0,0E0,0E0,0E0,0E0,0E0,0E0,0E0,0E0,0E0,0E0,0E0,0E0,0E0,0E0,0E0,0E0,0E0,0E0,0E0,0E0,0E0,0E0,0E0,0E0,0E0,0E0,0E0,0E0,0E0,0E0,0E0,0E0,0E0,0E0,0E0,0E0,0E0,0E0,0E0,0E0,0E0,0E0,0E0,0E0,0E0,0E0,0E0,0E0,0E0,0E0,0E0,0E0,0E0,0E0,0E0,0E0,0E0,0E0,0E0,0E0,0E0,0E0],"parents":[2147483647,0,0,1,1,2,2,3,3,4,4,5,5,6,6,7,7,8,8,9,9,10,10,11,11,12,12,13,13,14,14,15,15,16,16,17,17,18,18,19,19,20,20,21,21,22,22,23,23,24,24,25,25,26,26,27,27,28,28,29,29,30,30,31,31,32,32,33,33,34,34,35,35,36,36,37,37,38,38,39,39,40,40,41,41,42,42,43,43,44,44,45,45,46,46,47,47,48,48,49,49,50,50,51,51,52,52,53,53,54,54,55,55,56,56,57,57,58,58,59,59,60,60,61,61,62,62],"right_children":[2,4,6,8,10,12,14,16,18,20,22,24,26,28,30,32,34,36,38,40,42,44,46,48,50,52,54,56,58,60,62,64,66,68,70,72,74,76,78,80,82,84,86,88,90,92,94,96,98,100,102,104,106,108,110,112,114,116,118,120,122,124,126,-1,-1,-1,-1,-1,-1,-1,-1,-1,-1,-1,-1,-1,-1,-1,-1,-1,-1,-1,-1,-1,-1,-1,-1,-1,-1,-1,-1,-1,-1,-1,-1,-1,-1,-1,-1,-1,-1,-1,-1,-1,-1,-1,-1,-1,-1,-1,-1,-1,-1,-1,-1,-1,-1,-1,-1,-1,-1,-1,-1,-1,-1,-1,-1],"split_conditions":[1.7721845E0,1.2618135E0,2.856036E0,1E0,4.9078483E-2,1.2424735E0,-2.8334979E-2,-9.696171E-2,2.8355005E-1,3.0163276E-1,3.5164088E-1,-3.1820944E-1,5E-1,1.5716377E0,4.6955876E0,1.04013324E-1,1.7262584E-1,-1.2954202E-1,-2.8334979E-2,1.7560984E-3,1E0,5E-1,4.9197018E-1,-6.79667E-1,-4.0265283E-1,5.450331E-1,-5.796939E-1,5E-1,3.1896079E0,5E-1,5E-1,4.4171467E-1,4.9116108E-1,1.3987511E0,3.0104613E-1,5.431233E-1,-2.1018555E-2,-4.4413105E-1,2.8347605E-1,-4.707459E-4,5E-1,1.0390368E-1,2.3129454E0,1.0944129E0,2.9686433E-1,1E0,7.349059E-1,5E-1,5E-1,6E-1,1E0,-2.8334979E-2,-4.707459E-4,-4.9569002E-1,1.9366542E0,4.9116108E-1,-4.75095E-1,1E0,-2.097491E-1,9.2774814E-1,5.713062E-1,1.7267449E-1,-9.497506E-1,2.8842727E-2,-1.6845016E-2,-3.777192E-2,-2.7183672E-2,-7.4658394E-3,1.671011E-3,-2.0251686E-2,-1.1069344E-2,-2.1156754E-2,-5.0610574E-3,1.1505648E-2,2.6544186E-3,-3.192725E-2,-1.8431947E-2,-1.0528548E-2,-2.8216008E-3,2.4504986E-2,7E-2,7E-2,-3.4519793E-3,-2.0071259E-3,8.541575E-3,1.6283154E-2,4.074923E-2,-1.9604193E-2,-1.0960687E-2,-1.5847286E-3,-1.057612E-2,1.726804E-3,1.2371236E-2,-8.909868E-3,3.0783028E-3,-9.795315E-3,1.0788157E-2,-1.7732285E-2,-7.3768585E-3,1.2562376E-2,2.3940451E-2,-1.928046E-3,1.0764559E-2,8.492859E-3,-8.767725E-3,2.7314773E-2,2.3131466E-3,1.00672385E-2,4.5613077E-2,1.8222371E-2,3.300974E-2,-1.6028931E-2,8.54115E-3,1.11058345E-2,2.7238175E-2,1.171221E-2,5.1664647E-2,3.2657877E-2,5.9649684E-2,2.5208285E-2,7E-2,4.4386797E-2,7E-2,9.070158E-3,5.598045E-2,4.3440375E-2,7E-2],"split_indices":[3,2,3,5,1,2,0,0,1,3,0,0,5,2,3,1,1,0,0,1,5,5,1,1,1,0,1,5,3,5,5,3,2,3,0,2,1,0,0,1,5,0,2,3,1,5,0,5,5,4,5,1,1,0,2,2,0,5,0,0,0,0,1,0,0,0,0,0,0,0,0,0,0,0,0,0,0,0,0,0,0,0,0,0,0,0,0,0,0,0,0,0,0,0,0,0,0,0,0,0,0,0,0,0,0,0,0,0,0,0,0,0,0,0,0,0,0,0,0,0,0,0,0,0,0,0,0],"split_type":[0,0,0,0,0,0,0,0,0,0,0,0,0,0,0,0,0,0,0,0,0,0,0,0,0,0,0,0,0,0,0,0,0,0,0,0,0,0,0,0,0,0,0,0,0,0,0,0,0,0,0,0,0,0,0,0,0,0,0,0,0,0,0,0,0,0,0,0,0,0,0,0,0,0,0,0,0,0,0,0,0,0,0,0,0,0,0,0,0,0,0,0,0,0,0,0,0,0,0,0,0,0,0,0,0,0,0,0,0,0,0,0,0,0,0,0,0,0,0,0,0,0,0,0,0,0,0],"sum_hessian":[2.2830297E5,1.809989E5,4.7304062E4,8.7417766E4,9.358114E4,3.540986E4,1.1894206E4,5.4337215E4,3.3080555E4,2.716046E4,6.642068E4,1.6972568E4,1.843729E4,6.438465E3,5.4557407E3,2.0632514E4,3.3704703E4,2.1537123E4,1.154343E4,3.8196878E2,2.6778492E4,2.7218248E4,3.9202434E4,4.595901E3,1.2376668E4,5.6490137E3,1.2788276E4,5.559674E3,8.787912E2,4.736178E3,7.195626E2,1.2416475E4,8.216039E3,1.4664458E4,1.9040244E4,7.8764717E3,1.3660651E4,3.98594E3,7.5574897E3,2.978729E2,8.409589E1,1.5846123E4,1.0932368E4,9.446017E3,1.777223E4,2.252674E4,1.6675693E4,9.78472E2,3.617429E3,3.3750981E3,9.00157E3,4.504506E3,1.1445079E3,1.532681E3,1.1255595E4,9.820167E2,4.577657E3,2.120276E2,6.667636E2,1.3753934E3,3.3607847E3,1.763102E2,5.4325244E2,1.4357933E2,1.22728955E4,1.500661E3,6.7153784E3,9.698539E3,4.9659185E3,1.149121E4,7.5490337E3,1.400655E3,6.4758164E3,5.8022275E3,7.8584243E3,8.5340295E2,3.132537E3,3.9128696E3,3.64462E3,8.1920265E1,2.1595264E2,2.9916296E1,5.417959E1,6.119484E3,9.72664E3,1.0125366E4,8.070021E2,5.380907E3,4.0651091E3,9.51249E3,8.25974E3,1.3128226E4,9.398514E3,9.9195625E3,6.7561304E3,2.937494E2,6.847226E2,1.209592E3,2.4078372E3,1.6294753E3,1.7456227E3,5.508051E3,3.4935193E3,3.8415505E3,6.629551E2,8.6747845E2,2.7702948E2,1.2875401E2,1.403927E3,8.401211E3,2.854384E3,1.4023447E2,8.417823E2,1.1929507E3,3.3847063E3,1.5134717E2,6.0680443E1,1.8061214E2,4.8615146E2,1.3340328E3,4.136059E1,2.998082E3,3.627025E2,3.3900463E1,1.4240973E2,1.027466E1,5.329778E2],"tree_param":{"num_deleted":"0","num_feature":"6","num_nodes":"127","size_leaf_vector":"1"}},{"base_weights":[7.1133027E-4,-4.4358987E-2,1.6157804E-1,-1.0951772E-1,6.725182E-3,1.01547204E-1,3.060546E-1,-5.1118415E-2,-1.8992168E-1,7.4735515E-2,-5.507561E-2,7.8752E-3,1.64501E-1,2.2861657E-1,4.7614825E-1,-1.4184688E-1,-8.452532E-3,-2.8121862E-1,-1.6192359E-1,2.624437E-2,1.3905323E-1,-8.789821E-2,3.716752E-2,-8.018622E-2,5.5618953E-2,1.10820025E-1,2.3878312E-1,1.6587618E-1,3.2629E-1,4.1263887E-1,7E-1,2.6034132E-1,-1.4832415E-1,-1.14464454E-1,2.2659319E-2,-3.491048E-1,-2.5557378E-1,-2.0008779E-1,-9.7962335E-2,1.2142654E-2,1.5975922E-1,1.19865276E-1,2.583405E-1,-1.5154977E-1,-5.306322E-2,6.877853E-2,-5.7678465E-2,-1.630741E-1,-4.651969E-2,1.3826878E-1,9.11458E-3,2.7080312E-1,8.800866E-2,2.7931097E-1,1.1724706E-1,1.1952359E-2,1.9856536E-1,2.9526615E-1,7E-1,3.8683826E-1,7E-1,4.4011495E-1,7E-1,3.9066736E-2,-1.50144175E-2,-2.4206134E-2,-1.2508215E-2,4.680893E-2,-1.2226344E-2,5.365412E-3,-4.6117143E-3,-3.3050176E-2,-4.2118937E-2,-2.8761312E-2,-2.0256624E-2,-1.7808951E-2,-2.6971584E-2,-5.178589E-3,-1.3992655E-2,7E-2,9.527282E-4,1.2812187E-2,3.5091866E-2,4.6193726E-2,1.14062615E-2,3.5668343E-2,2.1465605E-2,-1.3557786E-2,-2.3223441E-2,-2.8645236E-3,-1.1452016E-2,3.736504E-3,1.6674278E-2,-1.334693E-2,-2.9914568E-3,-2.7255973E-2,-1.3010305E-2,-8.455006E-3,2.9630957E-3,-2.5315696E-4,1.836502E-2,-9.001553E-3,5.0173854E-3,2.6257042E-2,7E-2,1.0317095E-2,-6.654286E-3,2.371669E-2,3.878266E-2,2.1002044E-3,1.766695E-2,-1.1956654E-2,7.3469044E-3,1.256599E-2,2.6160568E-2,1.6920172E-2,3.466564E-2,4.2399364E-3,7E-2,3.7241925E-2,7E-2,7E-2,3.9152293E-3,-3.89659E-2,4.6432268E-2,-1.1308392E-3,7E-2],"categories":[],"categories_nodes":[],"categories_segments":[],"categories_sizes":[],"default_left":[0,0,0,0,0,0,0,0,0,0,0,0,0,0,0,0,0,0,0,0,0,0,0,0,0,0,0,0,0,0,0,0,0,0,0,0,0,0,0,0,0,0,0,0,0,0,0,0,0,0,0,0,0,0,0,0,0,0,0,0,0,0,0,0,0,0,0,0,0,0,0,0,0,0,0,0,0,0,0,0,0,0,0,0,0,0,0,0,0,0,0,0,0,0,0,0,0,0,0,0,0,0,0,0,0,0,0,0,0,0,0,0,0,0,0,0,0,0,0,0,0,0,0,0,0,0,0],"id":10,"left_children":[1,3,5,7,9,11,13,15,17,19,21,23,25,27,29,31,33,35,37,39,41,43,45,47,49,51,53,55,57,59,61,63,65,67,69,71,73,75,77,79,81,83,85,87,89,91,93,95,97,99,101,103,105,107,109,111,113,115,117,119,121,123,125,-1,-1,-1,-1,-1,-1,-1,-1,-1,-1,-1,-1,-1,-1,-1,-1,-1,-1,-1,-1,-1,-1,-1,-1,-1,-1,-1,-1,-1,-1,-1,-1,-1,-1,-1,-1,-1,-1,-1,-1,-1,-1,-1,-1,-1,-1,-1,-1,-1,-1,-1,-1,-1,-1,-1,-1,-1,-1,-1,-1,-1,-1,-1,-1],"loss_changes":[1.6553802E3,5.936526E2,4.33349E2,3.6801587E2,4.2020016E2,2.0817703E2,1.9308374E2,1.7575394E2,8.424536E1,1.4844025E2,1.5858667E2,5.966634E1,8.416229E1,6.1720703E1,9.635535E1,3.7869507E1,1.01858315E2,1.3382019E1,6.1589355E1,5.1092976E1,4.6797028E1,8.56514E1,4.1219894E1,1.3914997E1,3.5368137E1,4.471045E1,4.3588776E1,3.0891815E1,5.0698456E1,3.8398987E1,9.279968E0,1.2391467E1,3.1107697E1,3.1892052E1,5.0899303E1,2.7022095E0,9.48642E0,2.4162292E1,1.8273033E1,4.4851646E1,1.5633209E1,3.493338E1,1.2098679E1,1.7576782E1,3.746721E1,3.172498E1,7.2281876E0,5.165329E0,1.0281915E1,2.1171875E1,2.3977448E1,6.53627E0,2.5150276E1,3.0277893E1,1.2672125E1,8.719211E0,2.3242828E1,2.373703E1,1.4350159E1,2.219226E1,1.13272705E1,3.0865688E0,4.198181E0,0E0,0E0,0E0,0E0,0E0,0E0,0E0,0E0,0E0,0E0,0E0,0E0,0E0,0E0,0E0,0E0,0E0,0E0,0E0,0E0,0E0,0E0,0E0,0E0,0E0,0E0,0E0,0E0,0E0,0E0,0E0,0E0,0E0,0E0,0E0,0E0,0E0,0E0,0E0,0E0,0E0,0E0,0E0,0E0,0E0,0E0,0E0,0E0,0E0,0E0,0E0,0E0,0E0,0E0,0E0,0E0,0E0,0E0,0E0,0E0,0E0,0E0,0E0,0E0],"parents":[2147483647,0,0,1,1,2,2,3,3,4,4,5,5,6,6,7,7,8,8,9,9,10,10,11,11,12,12,13,13,14,14,15,15,16,16,17,17,18,18,19,19,20,20,21,21,22,22,23,23,24,24,25,25,26,26,27,27,28,28,29,29,30,30,31,31,32,32,33,33,34,34,35,35,36,36,37,37,38,38,39,39,40,40,41,41,42,42,43,43,44,44,45,45,46,46,47,47,48,48,49,49,50,50,51,51,52,52,53,53,54,54,55,55,56,56,57,57,58,58,59,59,60,60,61,61,62,62],"right_children":[2,4,6,8,10,12,14,16,18,20,22,24,26,28,30,32,34,36,38,40,42,44,46,48,50,52,54,56,58,60,62,64,66,68,70,72,74,76,78,80,82,84,86,88,90,92,94,96,98,100,102,104,106,108,110,112,114,116,118,120,122,124,126,-1,-1,-1,-1,-1,-1,-1,-1,-1,-1,-1,-1,-1,-1,-1,-1,-1,-1,-1,-1,-1,-1,-1,-1,-1,-1,-1,-1,-1,-1,-1,-1,-1,-1,-1,-1,-1,-1,-1,-1,-1,-1,-1,-1,-1,-1,-1,-1,-1,-1,-1,-1,-1,-1,-1,-1,-1,-1,-1,-1,-1,-1,-1,-1],"split_conditions":[1.7489495E0,1.3731895E-1,2.6912796E0,1.3362364E-1,2.7887124E-1,-4.0912785E-2,1.5716377E0,5E-1,-2.25698E-1,1E0,6.6759944E-1,8.3786064E-1,1E0,-7.2838075E-2,4.6955876E0,4.118216E-1,-2.7009657E-1,-5.174423E-1,1E0,6.6759944E-1,2.0307922E0,5E-1,7.9761124E-1,5.0933516E-1,-3.9013344E-1,-5.174423E-1,-5.2824397E-2,5E-1,4.6955876E0,-1.1752514E-1,5E-1,2.3483971E-2,-3.369585E-1,4.4171467E-1,1.7560984E-3,6.025704E-1,1E0,4.800149E-1,3.1770894E-1,3.0163276E-1,9.6230394E-1,-4.4413105E-1,-2.8334979E-2,7.487758E-1,6.1109626E-1,9.6230394E-1,6.1013776E-1,-7.158453E-1,1E0,-4.75095E-1,5E-1,2.7065728E0,1.9899768E-1,4.1825885E-1,2.88008E-1,7.3972327E-1,9.1366416E-1,5E-1,-3.2350924E-2,9.2774814E-1,2.7668893E-2,-3.369585E-1,-2.5008726E-1,3.9066736E-2,-1.50144175E-2,-2.4206134E-2,-1.2508215E-2,4.680893E-2,-1.2226344E-2,5.365412E-3,-4.6117143E-3,-3.3050176E-2,-4.2118937E-2,-2.8761312E-2,-2.0256624E-2,-1.7808951E-2,-2.6971584E-2,-5.178589E-3,-1.3992655E-2,7E-2,9.527282E-4,1.2812187E-2,3.5091866E-2,4.6193726E-2,1.14062615E-2,3.5668343E-2,2.1465605E-2,-1.3557786E-2,-2.3223441E-2,-2.8645236E-3,-1.1452016E-2,3.736504E-3,1.6674278E-2,-1.334693E-2,-2.9914568E-3,-2.7255973E-2,-1.3010305E-2,-8.455006E-3,2.9630957E-3,-2.5315696E-4,1.836502E-2,-9.001553E-3,5.0173854E-3,2.6257042E-2,7E-2,1.0317095E-2,-6.654286E-3,2.371669E-2,3.878266E-2,2.1002044E-3,1.766695E-2,-1.1956654E-2,7.3469044E-3,1.256599E-2,2.6160568E-2,1.6920172E-2,3.466564E-2,4.2399364E-3,7E-2,3.7241925E-2,7E-2,7E-2,3.9152293E-3,-3.89659E-2,4.6432268E-2,-1.1308392E-3,7E-2],"split_indices":[3,0,3,1,1,0,2,5,0,5,0,2,5,0,3,3,0,0,5,0,2,5,1,2,1,1,1,5,3,1,5,1,0,3,1,1,5,1,1,3,0,1,1,1,1,0,3,0,5,0,5,2,1,0,0,2,2,5,0,0,1,0,0,0,0,0,0,0,0,0,0,0,0,0,0,0,0,0,0,0,0,0,0,0,0,0,0,0,0,0,0,0,0,0,0,0,0,0,0,0,0,0,0,0,0,0,0,0,0,0,0,0,0,0,0,0,0,0,0,0,0,0,0,0,0,0,0],"split_type":[0,0,0,0,0,0,0,0,0,0,0,0,0,0,0,0,0,0,0,0,0,0,0,0,0,0,0,0,0,0,0,0,0,0,0,0,0,0,0,0,0,0,0,0,0,0,0,0,0,0,0,0,0,0,0,0,0,0,0,0,0,0,0,0,0,0,0,0,0,0,0,0,0,0,0,0,0,0,0,0,0,0,0,0,0,0,0,0,0,0,0,0,0,0,0,0,0,0,0,0,0,0,0,0,0,0,0,0,0,0,0,0,0,0,0,0,0,0,0,0,0,0,0,0,0,0,0],"sum_hessian":[2.2831644E5,1.7834884E5,4.9967594E4,7.837677E4,9.997207E4,3.530137E4,1.4666221E4,4.5401918E4,3.297486E4,4.7594844E4,5.237723E4,1.41894E4,2.1111973E4,1.0079637E4,4.5865835E3,1.4520958E4,3.0880959E4,7.7369497E3,2.5237908E4,2.7136895E4,2.045795E4,3.863124E4,1.3745993E4,4.988196E3,9.201204E3,1.2256871E4,8.855101E3,6.1389746E3,3.9406624E3,3.9556663E3,6.309174E2,2.2953302E2,1.4291425E4,7.0059365E3,2.3875023E4,2.117901E3,5.619049E3,1.5805191E4,9.432718E3,2.4545512E4,2.5913833E3,1.76249E4,2.8330488E3,1.36628E4,2.4968438E4,1.0310053E4,3.4359402E3,1.439721E3,3.5484749E3,3.3123542E3,5.88885E3,1.528208E3,1.0728663E4,6.6397026E3,2.2153977E3,1.0756097E3,5.0633647E3,3.6720332E3,2.686292E2,3.727106E3,2.2856032E2,1.4365309E2,4.8726437E2,1.7425627E2,5.5276764E1,2.837619E3,1.1453807E4,9.177386E1,6.9141626E3,1.6458191E4,7.4168306E3,1.6878884E3,4.3001242E2,3.4994497E3,2.119599E3,1.2013276E4,3.7919148E3,4.492029E3,4.940689E3,9.049714E1,2.4455014E4,2.2248374E3,3.6654587E2,2.9267758E2,1.7332223E4,8.691791E2,1.9638696E3,1.1407343E4,2.2554575E3,1.7869871E4,7.098566E3,7.807772E3,2.502281E3,9.2018384E2,2.5157563E3,3.3153607E2,1.1081849E3,2.3665076E3,1.1819672E3,8.0760956E2,2.5047449E3,1.7244027E3,4.1644473E3,1.5079086E3,2.0299435E1,9.770464E3,9.5819965E2,4.784671E3,1.8550317E3,8.4619336E2,1.3692042E3,3.4247516E2,7.331345E2,2.349354E3,2.7140107E3,1.064651E3,2.607382E3,3.331746E1,2.3531174E2,3.6175042E3,1.0960166E2,2.025012E2,2.6059116E1,3.6441824E0,1.400089E2,8.26602E0,4.7899835E2],"tree_param":{"num_deleted":"0","num_feature":"6","num_nodes":"127","size_leaf_vector":"1"}},{"base_weights":[6.7033275E-4,-4.2871244E-2,1.496116E-1,-1.2389758E-1,-4.7224686E-3,1.0392713E-1,3.1200212E-1,-6.6059954E-2,-2.0601358E-1,5.1412113E-2,-6.385213E-2,3.484469E-2,1.776496E-1,1.990899E-1,4.282059E-1,-1.480988E-1,-2.814293E-2,-2.6610452E-1,-1.67596E-1,-2.719001E-2,8.872321E-2,-1.0131157E-1,1.8525666E-2,-6.0687784E-2,7.452236E-2,8.246042E-2,2.2466847E-1,1.5264611E-1,3.3335763E-1,3.6306822E-1,7E-1,2.0008443E-1,-1.5595205E-1,-1.695719E-1,-6.4390064E-3,-2.1477714E-1,-3.038022E-1,-2.4058041E-1,-1.3296497E-1,-5.8973704E-2,5.252E-2,6.1764967E-2,1.6097327E-1,-1.6294976E-1,-6.643352E-2,4.7041234E-2,-7.5377524E-2,-1.7243367E-1,-2.9079236E-2,9.278147E-2,-1.1225197E-1,1.15954176E-1,-2.8791685E-2,2.636394E-1,1.15136646E-1,-3.9738998E-2,1.7595416E-1,2.9776657E-1,7E-1,3.3366132E-1,6.677638E-1,3.7341538E-1,7E-1,1.0692908E-2,7E-2,-2.3589771E-2,-1.2805508E-2,-7.1104146E-3,-2.0832391E-2,2.4166403E-2,-1.4232498E-3,-1.9318426E-2,-3.3136237E-2,-3.6788482E-2,-2.7612422E-2,-3.240552E-2,-2.1124732E-2,-1.080677E-2,-2.0348424E-2,-1.6989049E-3,-9.398407E-3,3.8514428E-3,2.7475635E-2,1.1306836E-2,1.5577745E-3,1.4667052E-2,3.4653023E-2,-1.9071458E-2,-1.2702981E-2,-4.8097232E-3,-1.3331397E-2,2.2790015E-3,1.5661504E-2,-1.1148067E-2,-1.0078753E-3,-2.4954716E-2,-1.1928874E-2,1.0069805E-2,-5.6039044E-3,6.428627E-5,1.3075289E-2,-1.8567814E-2,-2.889331E-3,8.522903E-3,2.2710254E-2,-5.543051E-3,2.1630911E-2,1.9549927E-2,3.208472E-2,1.0532938E-2,6.505478E-2,-2.394859E-2,-1.2007166E-3,5.5482327E-3,1.9994503E-2,1.0475542E-2,3.325337E-2,3.476497E-2,7E-2,3.2292947E-2,7E-2,7E-2,1.720163E-2,-2.9243978E-3,4.3224465E-2,2.6177509E-2,7E-2],"categories":[],"categories_nodes":[],"categories_segments":[],"categories_sizes":[],"default_left":[0,0,0,0,0,0,0,0,0,0,0,0,0,0,0,0,0,0,0,0,0,0,0,0,0,0,0,0,0,0,0,0,0,0,0,0,0,0,0,0,0,0,0,0,0,0,0,0,0,0,0,0,0,0,0,0,0,0,0,0,0,0,0,0,0,0,0,0,0,0,0,0,0,0,0,0,0,0,0,0,0,0,0,0,0,0,0,0,0,0,0,0,0,0,0,0,0,0,0,0,0,0,0,0,0,0,0,0,0,0,0,0,0,0,0,0,0,0,0,0,0,0,0,0,0,0,0],"id":11,"left_children":[1,3,5,7,9,11,13,15,17,19,21,23,25,27,29,31,33,35,37,39,41,43,45,47,49,51,53,55,57,59,61,63,65,67,69,71,73,75,77,79,81,83,85,87,89,91,93,95,97,99,101,103,105,107,109,111,113,115,117,119,121,123,125,-1,-1,-1,-1,-1,-1,-1,-1,-1,-1,-1,-1,-1,-1,-1,-1,-1,-1,-1,-1,-1,-1,-1,-1,-1,-1,-1,-1,-1,-1,-1,-1,-1,-1,-1,-1,-1,-1,-1,-1,-1,-1,-1,-1,-1,-1,-1,-1,-1,-1,-1,-1,-1,-1,-1,-1,-1,-1,-1,-1,-1,-1,-1,-1],"loss_changes":[1.4807987E3,5.461428E2,3.831609E2,2.6860284E2,3.987344E2,2.053053E2,1.4870691E2,1.0322708E2,5.3912903E1,1.807328E2,1.805342E2,7.8895226E1,8.726361E1,3.582675E1,1.1806177E2,2.8713776E1,6.967051E1,1.7568726E1,3.6011353E1,5.026026E1,8.1384094E1,8.6447205E1,4.8974136E1,2.1569487E1,5.016149E1,2.403542E1,5.5686768E1,1.9183739E1,2.0518875E1,4.171411E1,1.9308594E1,1.9962215E1,2.2849411E1,1.1507988E1,3.8054176E1,9.659592E0,9.213776E0,1.1165039E1,1.6962189E1,2.0845463E1,1.7592602E1,7.211628E1,3.0084717E1,1.4468994E1,3.1492226E1,3.7275482E1,1.0042639E1,5.488781E0,1.666853E1,4.686963E1,8.013077E0,1.6909813E1,9.761208E0,3.7463867E1,1.7927444E1,2.5615602E0,1.1014076E1,9.075966E0,1.04652405E1,2.1232208E1,2.055397E1,4.4098244E0,5.9664307E0,0E0,0E0,0E0,0E0,0E0,0E0,0E0,0E0,0E0,0E0,0E0,0E0,0E0,0E0,0E0,0E0,0E0,0E0,0E0,0E0,0E0,0E0,0E0,0E0,0E0,0E0,0E0,0E0,0E0,0E0,0E0,0E0,0E0,0E0,0E0,0E0,0E0,0E0,0E0,0E0,0E0,0E0,0E0,0E0,0E0,0E0,0E0,0E0,0E0,0E0,0E0,0E0,0E0,0E0,0E0,0E0,0E0,0E0,0E0,0E0,0E0,0E0,0E0,0E0],"parents":[2147483647,0,0,1,1,2,2,3,3,4,4,5,5,6,6,7,7,8,8,9,9,10,10,11,11,12,12,13,13,14,14,15,15,16,16,17,17,18,18,19,19,20,20,21,21,22,22,23,23,24,24,25,25,26,26,27,27,28,28,29,29,30,30,31,31,32,32,33,33,34,34,35,35,36,36,37,37,38,38,39,39,40,40,41,41,42,42,43,43,44,44,45,45,46,46,47,47,48,48,49,49,50,50,51,51,52,52,53,53,54,54,55,55,56,56,57,57,58,58,59,59,60,60,61,61,62,62],"right_children":[2,4,6,8,10,12,14,16,18,20,22,24,26,28,30,32,34,36,38,40,42,44,46,48,50,52,54,56,58,60,62,64,66,68,70,72,74,76,78,80,82,84,86,88,90,92,94,96,98,100,102,104,106,108,110,112,114,116,118,120,122,124,126,-1,-1,-1,-1,-1,-1,-1,-1,-1,-1,-1,-1,-1,-1,-1,-1,-1,-1,-1,-1,-1,-1,-1,-1,-1,-1,-1,-1,-1,-1,-1,-1,-1,-1,-1,-1,-1,-1,-1,-1,-1,-1,-1,-1,-1,-1,-1,-1,-1,-1,-1,-1,-1,-1,-1,-1,-1,-1,-1,-1,-1,-1,-1,-1],"split_conditions":[1.7368788E0,1.933656E-2,2.96215E0,1.1693049E-1,2.7887124E-1,6.964835E-2,1.2755389E0,5E-1,5E-1,5E-1,5.8598787E-1,5E-1,5E-1,-2.8334979E-2,4.6955876E0,5.567069E-1,-4.4413105E-1,6E-1,-2.25698E-1,4.3264395E-1,4.424447E-1,5E-1,7.9761124E-1,-4.1635254E-1,-1.3059248E-2,-4.0838763E-2,-5.2824397E-2,4.2555395E-1,4.6955876E0,-1.633073E-1,5E-1,5.4477465E-1,-3.369585E-1,-3.1003538E-1,3.7040216E-1,5.085626E-1,-3.1003538E-1,-5.174423E-1,4.3266386E-1,1.8839521E-2,9.2774814E-1,1.4931746E-2,9.014623E-1,3.4712788E-1,6.4634657E-1,9.6230394E-1,9.014623E-1,-6.514008E-1,-5.174423E-1,-3.1820944E-1,1.1376147E0,5.391336E-1,2.1734903E0,6E-1,2.6912796E0,-7.633648E-1,5E-1,7.5521725E-1,-3.467012E-1,9.2774814E-1,-4.0838763E-2,1.4292552E0,-7.633648E-1,1.0692908E-2,7E-2,-2.3589771E-2,-1.2805508E-2,-7.1104146E-3,-2.0832391E-2,2.4166403E-2,-1.4232498E-3,-1.9318426E-2,-3.3136237E-2,-3.6788482E-2,-2.7612422E-2,-3.240552E-2,-2.1124732E-2,-1.080677E-2,-2.0348424E-2,-1.6989049E-3,-9.398407E-3,3.8514428E-3,2.7475635E-2,1.1306836E-2,1.5577745E-3,1.4667052E-2,3.4653023E-2,-1.9071458E-2,-1.2702981E-2,-4.8097232E-3,-1.3331397E-2,2.2790015E-3,1.5661504E-2,-1.1148067E-2,-1.0078753E-3,-2.4954716E-2,-1.1928874E-2,1.0069805E-2,-5.6039044E-3,6.428627E-5,1.3075289E-2,-1.8567814E-2,-2.889331E-3,8.522903E-3,2.2710254E-2,-5.543051E-3,2.1630911E-2,1.9549927E-2,3.208472E-2,1.0532938E-2,6.505478E-2,-2.394859E-2,-1.2007166E-3,5.5482327E-3,1.9994503E-2,1.0475542E-2,3.325337E-2,3.476497E-2,7E-2,3.2292947E-2,7E-2,7E-2,1.720163E-2,-2.9243978E-3,4.3224465E-2,2.6177509E-2,7E-2],"split_indices":[3,0,3,1,1,0,2,5,5,5,0,5,5,0,3,3,0,4,0,0,0,5,1,0,1,1,1,2,3,1,5,3,0,1,3,1,0,0,1,1,0,1,0,0,1,0,0,0,1,0,2,0,2,4,3,0,5,2,1,0,1,2,1,0,0,0,0,0,0,0,0,0,0,0,0,0,0,0,0,0,0,0,0,0,0,0,0,0,0,0,0,0,0,0,0,0,0,0,0,0,0,0,0,0,0,0,0,0,0,0,0,0,0,0,0,0,0,0,0,0,0,0,0,0,0,0,0],"split_type":[0,0,0,0,0,0,0,0,0,0,0,0,0,0,0,0,0,0,0,0,0,0,0,0,0,0,0,0,0,0,0,0,0,0,0,0,0,0,0,0,0,0,0,0,0,0,0,0,0,0,0,0,0,0,0,0,0,0,0,0,0,0,0,0,0,0,0,0,0,0,0,0,0,0,0,0,0,0,0,0,0,0,0,0,0,0,0,0,0,0,0,0,0,0,0,0,0,0,0,0,0,0,0,0,0,0,0,0,0,0,0,0,0,0,0,0,0,0,0,0,0,0,0,0,0,0,0],"sum_hessian":[2.2833527E5,1.7668406E5,5.1651207E4,5.6557066E4,1.2012699E5,4.0312066E4,1.1339143E4,3.318519E4,2.3371875E4,6.1624285E4,5.850271E4,2.0811707E4,1.9500357E4,5.7523984E3,5.586744E3,1.0488636E4,2.2696555E4,9.112543E3,1.4259331E4,1.9836217E4,4.1788066E4,4.0215426E4,1.8287285E4,6.107079E3,1.4704627E4,6.4483984E3,1.305196E4,4.27559E3,1.4768083E3,4.67937E3,9.0737396E2,2.3081226E2,1.0257823E4,3.0187434E3,1.967781E4,3.8615444E3,5.250998E3,4.5867896E3,9.672542E3,1.418166E4,5.654557E3,3.043419E4,1.1353877E4,1.4531313E4,2.5684111E4,1.4027926E4,4.2593594E3,1.3455815E3,4.7614976E3,1.3395575E4,1.3090518E3,4.956226E3,1.4921725E3,9.625755E3,3.426205E3,4.619491E2,3.8136409E3,1.3567063E3,1.20102E2,4.2694136E3,4.0995627E2,1.8462811E2,7.2274585E2,2.2185564E2,8.956618E0,2.6515872E3,7.6062363E3,8.5331885E2,2.1654246E3,5.9838635E2,1.9079424E4,3.2603486E3,6.01196E2,1.580164E3,3.6708342E3,1.1900767E3,3.396713E3,7.150533E3,2.5220088E3,6.44921E3,7.73245E3,5.320431E3,3.3412592E2,1.4417836E4,1.6016354E4,1.0543011E4,8.108657E2,8.193627E3,6.3376865E3,2.015895E4,5.5251626E3,1.1486832E4,2.5410938E3,2.7424014E3,1.5169581E3,5.4748444E2,7.9809705E2,8.1853827E2,3.9429595E3,3.9096726E3,9.485903E3,6.953383E2,6.137135E2,3.8842542E3,1.0719717E3,1.3465918E3,1.4558073E2,4.3951343E3,5.2306206E3,3.3657505E3,6.0454582E1,5.5385136E1,4.0656396E2,6.3387976E2,3.1797612E3,2.0769464E2,1.1490117E3,8.724152E1,3.2860474E1,4.182569E3,8.68448E1,3.3393494E2,7.602133E1,2.3599976E1,1.6102814E2,3.262067E1,6.901252E2],"tree_param":{"num_deleted":"0","num_feature":"6","num_nodes":"127","size_leaf_vector":"1"}},{"base_weights":[6.2869885E-4,-4.2885054E-2,1.3441096E-1,-9.9801466E-2,8.688216E-3,8.514011E-2,2.6340023E-1,-1.421059E-1,-3.2260485E-2,9.3043186E-2,-2.4305383E-2,1.2713621E-2,1.5039887E-1,1.9792324E-1,4.021551E-1,-2.034589E-1,-1.06226355E-1,-1.13048576E-1,4.4090655E-3,5.905696E-1,8.4719546E-2,-8.3403945E-2,1.5587756E-2,-8.424746E-2,4.5180082E-2,1.0329153E-1,2.1727103E-1,9.3001276E-2,2.4141112E-1,3.5004577E-1,7E-1,-1.5611647E-1,-2.7462798E-1,-5.3120535E-2,-1.5865335E-1,-5.629918E-2,-2.0178163E-1,5.224392E-2,-7.023508E-2,2.0268188E-1,6.918089E-1,-2.0367934E-3,1.2266346E-1,-1.4379936E-1,-5.2208684E-2,-2.090777E-2,7.237011E-2,1.0233953E-1,-1.0461017E-1,1.3090642E-1,1.06563885E-2,2.3282515E-1,8.498038E-2,1.4828208E-1,2.834314E-1,7.324137E-2,2.582536E-1,2.0776567E-1,4.1020718E-1,3.2825524E-1,7E-1,3.6206785E-1,7E-1,2.4130218E-2,-1.6165448E-2,-3.671321E-2,-2.5448931E-2,-7.4515254E-3,2.6663148E-3,-1.960246E-2,-1.0669596E-2,-2.7964482E-2,-4.178598E-3,-3.1230206E-2,-1.746027E-2,9.62261E-3,2.096104E-3,-1.0555222E-2,-2.1681932E-3,7E-2,6.5896176E-3,7E-2,2.1290591E-2,-7.3077716E-3,4.7986577E-3,9.97945E-3,2.3155859E-2,-1.8013535E-2,-9.499661E-3,-8.919636E-3,-4.0464886E-4,-2.3257271E-4,-1.0704608E-2,-3.3175882E-3,9.609832E-3,2.3477392E-3,2.5509387E-2,-1.7139051E-2,-6.9671506E-3,8.743084E-3,1.7503217E-2,-6.198369E-3,4.64579E-3,-8.468038E-3,2.5529137E-2,5.4452047E-3,1.6026454E-2,1.7730398E-2,3.3966105E-3,2.6191229E-2,7E-2,-3.902188E-3,1.0211629E-2,-2.1840801E-2,2.8196624E-2,1.0193802E-2,2.4005635E-2,3.2273807E-2,7E-2,3.163072E-2,6.954588E-2,7E-2,2.5329066E-3,-3.9001584E-2,3.824546E-2,-4.032717E-3,7E-2],"categories":[],"categories_nodes":[],"categories_segments":[],"categories_sizes":[],"default_left":[0,0,0,0,0,0,0,0,0,0,0,0,0,0,0,0,0,0,0,0,0,0,0,0,0,0,0,0,0,0,0,0,0,0,0,0,0,0,0,0,0,0,0,0,0,0,0,0,0,0,0,0,0,0,0,0,0,0,0,0,0,0,0,0,0,0,0,0,0,0,0,0,0,0,0,0,0,0,0,0,0,0,0,0,0,0,0,0,0,0,0,0,0,0,0,0,0,0,0,0,0,0,0,0,0,0,0,0,0,0,0,0,0,0,0,0,0,0,0,0,0,0,0,0,0,0,0],"id":12,"left_children":[1,3,5,7,9,11,13,15,17,19,21,23,25,27,29,31,33,35,37,39,41,43,45,47,49,51,53,55,57,59,61,63,65,67,69,71,73,75,77,79,81,83,85,87,89,91,93,95,97,99,101,103,105,107,109,111,113,115,117,119,121,123,125,-1,-1,-1,-1,-1,-1,-1,-1,-1,-1,-1,-1,-1,-1,-1,-1,-1,-1,-1,-1,-1,-1,-1,-1,-1,-1,-1,-1,-1,-1,-1,-1,-1,-1,-1,-1,-1,-1,-1,-1,-1,-1,-1,-1,-1,-1,-1,-1,-1,-1,-1,-1,-1,-1,-1,-1,-1,-1,-1,-1,-1,-1,-1,-1],"loss_changes":[1.3293467E3,5.057963E2,3.5616974E2,2.3404224E2,2.5159995E2,1.9168481E2,1.4065479E2,1.1084857E2,9.3460144E1,1.0520697E2,1.5320865E2,6.0518997E1,6.718204E1,4.800659E1,7.9421875E1,6.2572937E1,8.8479126E1,4.9584297E1,7.7484924E1,1.6276794E1,8.22964E1,4.933249E1,8.0399475E1,1.8333359E1,4.262257E1,2.9672714E1,4.0197998E1,1.0058199E1,4.2174316E1,3.2757324E1,1.753061E1,2.460672E1,1.3734131E1,2.695544E1,3.1032562E1,1.9464895E1,1.1484772E1,1.8194687E1,1.45310135E1,1.0282194E1,2.0721634E1,2.7039904E1,4.329059E1,1.579892E1,3.0765E1,3.780314E1,3.8019157E1,5.7162623E0,1.0134003E1,7.9166946E0,2.6706802E1,1.1077126E1,2.5202522E1,1.43194275E1,4.0715973E1,8.943812E0,3.7825565E0,2.1184357E1,4.7301956E1,1.735675E1,1.2153015E1,2.568655E0,4.911621E0,0E0,0E0,0E0,0E0,0E0,0E0,0E0,0E0,0E0,0E0,0E0,0E0,0E0,0E0,0E0,0E0,0E0,0E0,0E0,0E0,0E0,0E0,0E0,0E0,0E0,0E0,0E0,0E0,0E0,0E0,0E0,0E0,0E0,0E0,0E0,0E0,0E0,0E0,0E0,0E0,0E0,0E0,0E0,0E0,0E0,0E0,0E0,0E0,0E0,0E0,0E0,0E0,0E0,0E0,0E0,0E0,0E0,0E0,0E0,0E0,0E0,0E0,0E0,0E0],"parents":[2147483647,0,0,1,1,2,2,3,3,4,4,5,5,6,6,7,7,8,8,9,9,10,10,11,11,12,12,13,13,14,14,15,15,16,16,17,17,18,18,19,19,20,20,21,21,22,22,23,23,24,24,25,25,26,26,27,27,28,28,29,29,30,30,31,31,32,32,33,33,34,34,35,35,36,36,37,37,38,38,39,39,40,40,41,41,42,42,43,43,44,44,45,45,46,46,47,47,48,48,49,49,50,50,51,51,52,52,53,53,54,54,55,55,56,56,57,57,58,58,59,59,60,60,61,61,62,62],"right_children":[2,4,6,8,10,12,14,16,18,20,22,24,26,28,30,32,34,36,38,40,42,44,46,48,50,52,54,56,58,60,62,64,66,68,70,72,74,76,78,80,82,84,86,88,90,92,94,96,98,100,102,104,106,108,110,112,114,116,118,120,122,124,126,-1,-1,-1,-1,-1,-1,-1,-1,-1,-1,-1,-1,-1,-1,-1,-1,-1,-1,-1,-1,-1,-1,-1,-1,-1,-1,-1,-1,-1,-1,-1,-1,-1,-1,-1,-1,-1,-1,-1,-1,-1,-1,-1,-1,-1,-1,-1,-1,-1,-1,-1,-1,-1,-1,-1,-1,-1,-1,-1,-1,-1,-1,-1,-1],"split_conditions":[1.693054E0,1.2618135E0,2.6912796E0,1E0,4.9078483E-2,1.2424735E0,1.5716377E0,-9.696171E-2,-1.2954202E-1,3.0163276E-1,3.5164088E-1,-3.1820944E-1,1E0,-3.1003538E-1,4.6955876E0,1.0877224E-1,2.2885372E-1,1.6109063E-1,2.8355005E-1,-4.707459E-4,5E-1,5E-1,1E0,-8.097461E-1,-3.5684633E-1,-5.174423E-1,6E-1,4.6955876E0,4.113712E0,-1.13245204E-1,5E-1,4.4171467E-1,4.9116108E-1,2.9268157E-1,3.0104613E-1,3.7401044E-1,-5.174423E-1,-2.1018555E-2,2.8347605E-1,1.2847083E0,1.7560984E-3,1.6484411E-1,2.0307922E0,1.0944129E0,1.0717559E0,7.487758E-1,7.304719E-1,-6.24684E-1,5E-1,6E-1,5E-1,-4.75095E-1,1.8937322E0,1.4931746E-2,2.4856653E0,-7.158453E-1,3.0957377E-1,5E-1,-2.5008726E-1,9.2774814E-1,2.7668893E-2,-3.369585E-1,-2.5008726E-1,2.4130218E-2,-1.6165448E-2,-3.671321E-2,-2.5448931E-2,